tree
version=v4
num_class=1
num_tree_per_iteration=1
label_index=0
max_feature_idx=11
objective=lambdarank
feature_names=num_q_terms num_q_unique num_d_terms num_d_unique min_q_idf max_q_idf sum_q_idf min_d_idf max_d_idf sum_d_idf overlap bm25_score
feature_infos=[1:48] [1:44] [1:48] [1:44] [0:10.272961190111593] [2.3134971059940499:10.440015274774758] [4.5993736174013602:261.77705583079614] [0:10.272961190111593] [2.3134971059940499:10.353003897785129] [4.5993736174013602:261.77705583079614] [0:19] [0:86.477814196732524]
tree_sizes=3439 3431 3455 3405 3416 3415 3426 3410 3457 3420 3415 3450 3453 3446 3405 3443 3447 3457 3471 3421 3422 3398 3431 3454 3389 3418 3412 3411 3398 3488 3398 3412 3395 3414 3423 3439 3412 3422 3425 3441 3409 3413 3416 3405 3408 3398 3371 3416 3428 3421 3409 3403 3430 3451 3398 3396 3396 3418 3398 3406 3416 3405 3393 3428 3383 3461 3396 3429 3377 3422 3403 3415 3435 3414 3403 3387 3402 3386 3393 3392 3378 3365 3373 3369 3376 3362 3405 3420 3411 3437 3421 3383 3445 3406 3408 3414 3425 3441 3416 3411

Tree=0
num_leaves=31
num_cat=0
split_feature=9 8 8 6 8 3 2 3 8 3 9 3 2 6 8 9 9 1 8 7 9 8 8 8 3 8 8 9 7 2
split_gain=66.7715 39.1202 47.6679 33.9133 20.1192 18.0379 17.7768 17.5417 16.0783 12.5192 12.4308 12.3321 12.0238 11.5174 11.298 10.8279 11.4024 9.79913 12.7656 17.974 9.14721 8.94893 9.96952 8.8769 8.6101 10.4886 8.60737 8.53223 8.78564 8.52207
threshold=61.841912573672893 7.4603226669608178 7.1560343593952558 76.426121298851299 6.4603339817980237 9.5000000000000018 18.500000000000004 32.500000000000007 7.0133875461413959 33.500000000000007 14.074914637010819 22.500000000000004 35.500000000000007 128.13593072961123 9.3880489939306937 62.454880274868437 63.009413245060536 26.500000000000004 8.8582725675149323 1.8231066760381942 59.566503323869505 8.9159862284968945 9.3880489939306937 9.920505179041827 34.500000000000007 9.3264765045318097 8.5271339442028893 19.384627789894406 1.0000000180025095e-35 38.500000000000007
decision_type=2 2 2 2 2 2 2 2 2 2 2 2 2 2 2 2 2 2 2 2 2 2 2 2 2 2 2 2 2 2
left_child=3 2 4 10 -2 -5 -4 14 -6 21 -1 -10 -11 23 15 -3 -17 18 19 -7 27 26 -23 24 -14 -26 -9 28 -12 -18
right_child=1 7 6 5 8 17 -8 9 11 12 20 -13 13 -15 -16 16 29 -19 -20 -21 -22 22 -24 -25 25 -27 -28 -29 -30 -31
leaf_value=0.012046055758092783 -0.048918759812248615 -0.041217319257210797 0.019245581106354184 -0.01926458050061718 0.016322016831503684 0.0027014782276632275 0.052774163495872585 -0.0076912021759427381 -0.054311154451694099 -0.087893741819695906 -0.026993235155791169 0.017761589214062855 0.02873054413543908 0.031571262321747784 -0.0015970492214220232 0.032289061323093601 0.0035717069783638882 -0.02264433299386236 -0.020175467040006972 -0.057828830042287699 -0.019661254077411965 -0.063606149153867517 0.026403783052318847 -0.038732993915285029 -0.06018242135156493 0.0095129192226570906 0.062880538128713942 -0.0010743089609131431 -0.0035305811560210308 -0.042852969098686348
leaf_weight=147.36057794094086 18.690485674887896 13.448849238455294 66.650456074625254 558.5089056789875 94.998984362930059 352.17244220152497 97.167255409061909 5.0449181422591201 16.412980791181326 3.1807952187955371 67.128529231995344 9.2972122095525283 23.654166921973228 40.372003212571144 1627.5255363434553 34.593259293586016 3035.5761420205235 79.413347620517015 92.803656980395317 12.706688422709702 79.388383485376835 3.566169515252116 22.396741736680269 13.434645660221575 8.0818300954997557 16.256951700896025 30.095602411776781 1473.8352210819721 98.36066097766161 9.91754327341914
leaf_count=1253 217 146 482 5688 706 3016 518 44 194 41 682 65 160 267 13798 220 24522 814 912 160 774 45 154 145 101 133 124 12801 910 108
internal_value=4.18498e-09 0.00341824 0.0208452 -0.00599048 -0.000645733 -0.0129732 0.0391328 0.00233701 0.00682881 0.0183081 -0.00189082 -0.0282485 0.00783502 0.0108261 0.00177515 0.00354929 0.00374476 -0.00643096 -0.00361775 0.000593548 -0.00308575 0.0363016 0.0140404 -0.00280818 0.00724823 -0.0136298 0.052749 -0.00228304 -0.0130479 0.00342053
internal_weight=8152.04 5190.36 303.217 2961.68 139.4 1095.61 163.818 4887.15 120.709 166.084 1866.07 25.7102 104.98 101.8 4721.06 3093.54 3080.09 537.096 457.683 364.879 1718.71 61.1034 25.9629 61.4276 47.9929 24.3388 35.1405 1639.32 165.489 3045.49
internal_count=69200 42190 2182 27010 1182 10590 1000 40008 965 1214 16420 259 847 806 38794 24996 24850 4902 4088 3176 15167 367 199 539 394 234 168 14393 1592 24630
is_linear=0
shrinkage=0.05


Tree=1
num_leaves=31
num_cat=0
split_feature=8 9 0 3 9 9 3 8 8 2 9 7 0 0 2 9 9 8 7 8 8 9 5 7 9 0 2 3 8 9
split_gain=698.051 660.373 171.067 123.536 96.3739 43.1808 34.7751 28.1838 55.2621 46.3411 28.1669 27.2868 27.2204 27.0796 39.3065 26.9669 26.5449 25.0892 24.8201 24.0869 39.5433 49.5405 37.1598 36.4483 27.9635 26.8656 25.8509 83.4621 51.9758 84.2927
threshold=9.3880489939306937 61.841912573672893 16.500000000000004 32.500000000000007 14.074914637010819 19.384627789894406 4.5000000000000009 7.4465609094886984 7.1560343593952558 16.500000000000004 69.315805681335135 6.6931358226041331 16.500000000000004 2.5000000000000004 2.5000000000000004 24.229736523619991 21.180989817148998 7.2562974801891693 4.8507512582098178 8.7519695445092207 8.8963758719202541 98.570698716942033 6.7729638981774523 1.0000000180025095e-35 79.02128001695749 32.500000000000007 26.500000000000004 20.500000000000004 8.5271339442028893 116.12064985556154
decision_type=2 2 2 2 2 2 2 2 2 2 2 2 2 2 2 2 2 2 2 2 2 2 2 2 2 2 2 2 2 2
left_child=1 2 4 -2 11 -6 15 8 -3 10 12 13 -10 14 -1 -7 17 -8 -18 26 21 25 -22 -23 -24 -21 -9 -28 29 -29
right_child=3 7 -4 -5 5 6 16 19 9 -11 -12 -13 -14 -15 -16 -17 18 -19 -20 20 22 23 24 -25 -26 -27 27 28 -30 -31
leaf_value=-0.035498241249756139 -0.01868206934649317 0.0065683197338453269 -0.020921958511259223 0.016263655863016781 -0.0238555297576547 0.0024486280251797142 0.028439734017354164 0.006376445114699713 -0.010997468421067686 0.043386362609144517 -0.022767294213455084 0.041657847293188534 0.039284362370669401 0.015549834700997576 0.030253840108401445 0.037893927252321422 -0.0065967280615360632 -0.034337712556642114 -0.072925792345162652 0.030193950560452543 -0.026013265931999315 0.016220909850206421 0.0016906981424604274 -0.011000232667172477 0.012588209555230771 -0.017989682411218899 0.066945764136706387 0.033867241999555917 0.026043186116399449 -0.0012262719260510088
leaf_weight=66.344160720705986 4689.2133697196841 443.56560396589339 1982.077439032495 267.31372249312699 322.18161852285266 180.91007248312235 93.684872463345528 5305.0993284843862 39.807026997208595 291.26432877779007 46.268813632428646 80.324125230312347 83.116610713303089 474.56452265009284 34.574275128543377 76.288705565035343 3395.1359804570675 19.172538489103317 14.162626519799231 736.61827097833157 70.58816996961832 517.88213455118239 720.9462049305439 161.26368377357721 3208.6247914098203 30.111838452517986 70.170317366719246 211.50485583394766 425.09606922417879 895.93097155913711
leaf_count=185 16465 1182 9053 648 1552 558 246 11234 79 580 101 137 142 862 61 192 11359 76 62 1278 177 1033 1519 396 6500 77 84 367 872 2123
internal_value=-8.03728e-11 0.0041634 -0.00858056 -0.0167974 -0.0034387 -0.00628436 -0.00478646 0.0106416 0.0191637 0.0312969 0.010485 0.0143585 0.0230013 0.0105482 -0.0129718 0.0129622 -0.00608252 0.0177749 -0.00687227 0.010018 0.0125045 0.0195911 0.00994298 0.00975723 0.0105889 0.0283016 0.00805764 0.0136226 0.011181 0.0054761
internal_weight=24953.8 19997.3 6739.42 4956.53 4757.34 4101.54 3779.35 13257.9 904.022 460.457 169.192 655.807 122.924 575.483 100.918 257.199 3522.16 112.857 3409.3 12353.8 5446.04 1445.88 4000.16 679.146 3929.57 766.73 6907.8 1602.7 1532.53 1107.44
internal_count=69200 52087 24343 17113 15290 14045 12493 27744 2084 902 322 1245 221 1108 246 750 11743 322 11421 25660 10980 2784 8196 1429 8019 1355 14680 3446 3362 2490
is_linear=0
shrinkage=0.05


Tree=2
num_leaves=31
num_cat=0
split_feature=8 9 8 8 9 9 3 9 8 8 11 8 9 8 8 3 8 3 9 8 8 2 2 9 9 8 8 9 9 8
split_gain=43.1841 27.0953 53.4736 56.2291 44.0354 29.8563 43.3679 28.6569 28.5257 27.8865 26.3125 30.4236 25.9019 39.8963 37.126 50.1121 33.5791 29.8552 29.8111 25.8318 32.6863 25.4965 38.2263 35.927 43.8753 31.8532 32.4207 25.298 40.9873 25.4598
threshold=9.3880489939306937 74.929200548607369 7.4465609094886984 7.1560343593952558 85.780593126119598 105.39169055703728 18.500000000000004 93.931913247873169 9.2970562545203439 9.2684770476003688 2.6630590233578295 7.7229197471864799 120.2692848567565 7.810751326453774 8.9359888958037441 20.500000000000004 8.9563998930638729 31.500000000000004 144.85657468121096 9.1616899974513384 9.1122897050792933 5.5000000000000009 6.5000000000000009 26.841886983120386 24.229736523619991 7.5778177671067963 5.620853481055863 121.8430216087762 122.83726380121182 8.4496726528999719
decision_type=2 2 2 2 2 2 2 2 2 2 2 2 2 2 2 2 2 2 2 2 2 2 2 2 2 2 2 2 2 2
left_child=1 21 3 -3 8 7 -7 9 19 -6 -9 -12 14 -14 15 -8 -16 18 27 20 -4 23 25 24 -1 26 -23 -15 -29 -30
right_child=-2 2 4 -5 5 6 12 10 -10 -11 11 -13 13 17 16 -17 -18 -19 -20 -21 -22 22 -24 -25 -26 -27 -28 28 29 -31
leaf_value=0.0034533289572308994 -0.0046118041818379992 0.0026555759102421844 0.0086707671236698133 0.035124091791375399 0.0051661185753549103 0.038921214956372345 -0.02121902279923632 0.0082313022901142757 0.03612147032296719 -0.021823074535044219 0.027579462408448125 -0.013089802868114266 -0.031956344896115624 -0.015458017458991292 0.075212151395146878 0.0070653247185981779 0.016163780209863424 0.014222617211117013 -0.010813438535337954 -0.014402748814549929 0.061128036143063641 0.018055400022365557 -0.0012522968215765247 -0.019676083309193963 0.028126952058677497 -0.0031076068943287076 -0.03601209851549337 0.035030779465531681 0.017939987700511164 -0.0015221895015663802
leaf_weight=1313.3873127326369 4092.7577916029841 275.15144749358296 1320.4633891396224 258.73259231075644 899.55550062656403 81.597654439508915 187.18741336464882 196.48591092228889 95.197630681097507 107.10484123975039 47.869670987129211 1168.1644915863872 100.14293071627617 180.29844371974468 25.604736059904099 958.3349671214819 403.39239258691669 330.15520981699228 653.43393421545625 119.50064025819302 30.378944620490074 31.997826084494591 6191.4550805315375 139.46812563017011 208.82184068858624 243.11136168241501 207.68745875731111 101.51393391191959 203.87369168177247 956.04681250452995
leaf_count=4558 17113 695 3213 529 2265 145 566 453 185 267 117 3072 432 510 32 2305 848 864 1668 321 50 123 22641 578 574 942 1022 172 641 2299
internal_value=1.75832e-11 0.00110794 0.00305978 0.0183906 0.00205751 0.000269402 0.00282713 -0.00415167 0.00959667 0.00229457 -0.00874571 -0.0114888 0.00210879 -0.00102917 0.00714195 0.00244344 0.0196881 0.000247829 -0.00195431 0.00787932 0.00985047 -0.000929191 -0.00230896 0.00461275 0.00683814 -0.0158597 -0.0287941 0.0020609 0.0045649 0.00189858
internal_weight=21128.9 17036.1 8700.19 533.884 8166.3 6600.76 4181.58 2419.18 1565.54 1006.66 1412.52 1216.03 4099.98 2525.46 1574.52 1145.52 428.997 2425.32 2095.17 1470.34 1350.84 8335.93 6674.25 1661.68 1522.21 482.797 239.685 1441.73 1261.43 1159.92
internal_count=69200 52087 21649 1224 20425 16656 10482 6174 3769 2532 3642 3189 10337 6586 3751 2871 880 6154 5290 3584 3263 30438 24728 5710 5132 2087 1145 3622 3112 2940
is_linear=0
shrinkage=0.05


Tree=3
num_leaves=31
num_cat=0
split_feature=8 8 3 7 7 9 2 11 3 8 8 8 8 2 8 8 8 8 3 5 6 2 5 1 9 2 8 8 11 8
split_gain=41.8179 49.3669 30.0766 28.4104 24.4795 28.0516 37.2177 20.6874 18.0157 20.3746 25.8265 22.9483 17.7991 16.8417 15.2033 21.2709 15.0392 20.1823 13.535 12.59 13.8977 12.3081 12.2703 11.3592 10.4577 10.3579 29.488 30.531 28.9924 21.7252
threshold=7.3551926191568073 7.3346156743345849 32.500000000000007 7.6099143459263265 1.688848829460152 86.409442426148786 24.500000000000004 7.3001613781162531 5.5000000000000009 6.4603339817980237 6.8653748217432682 6.3937906649496519 7.1560343593952558 46.500000000000007 8.6258103852895935 8.5271339442028893 6.998732970526147 6.5426513543659981 23.500000000000004 7.9898018723840254 103.57890791509861 39.500000000000007 9.5609438455602263 26.500000000000004 52.691323275882503 8.5000000000000018 6.4603339817980237 6.4335092195903014 10.436573486586667 6.6883750153911672
decision_type=2 2 2 2 2 2 2 2 2 2 2 2 2 2 2 2 2 2 2 2 2 2 2 2 2 2 2 2 2 2
left_child=1 4 3 21 5 23 12 -8 16 11 -11 24 -7 14 15 -4 17 -6 19 -9 22 -2 -21 25 -10 26 27 28 -1 -28
right_child=2 -3 13 -5 8 6 7 18 9 10 -12 -13 -14 -15 -16 -17 -18 -19 -20 20 -22 -23 -24 -25 -26 -27 29 -29 -30 -31
leaf_value=-0.0015584871741113103 -0.0012610600147919832 0.036638016356477725 0.0032794041397258217 -0.071549824128122025 0.0087681049599935383 0.017498917014210202 -0.043673517488765974 0.063188589689424188 0.015007413730990977 -0.033985132264255466 0.011133051488378834 0.076376954133055674 0.058029214339342806 -0.02514924844665016 0.0096099841366786079 0.059542106934175387 -0.00027780472980679484 0.030278791170983085 -0.032407039351190429 -0.065935839126100557 0.035111026674474771 -0.034130429226211727 0.020437522668950187 -0.015287813287102013 -0.05208398128195052 0.0040159544176346226 -0.029071258496221719 0.051135954782771276 0.043127094432596762 -0.0052990191611711271
leaf_weight=365.95230847597122 16388.357338607311 119.70791748166084 29.724847979843616 14.412269204854963 197.97164312750101 50.512537818402052 24.296798773109913 13.851574920117853 38.206884678453207 67.389394486322999 59.919724300503731 14.906227886676787 58.412951432168484 30.376827456057072 410.88329455628991 38.631802782416344 107.03900460898876 242.75497049838305 14.379838377237318 9.0423260033130664 20.195332795381546 28.530173700302839 7.540898770093917 115.22469208389521 6.8494529277086249 1171.6523948609829 122.93782043084502 35.644656144082546 40.295387579128146 440.39513616263866
leaf_count=1349 55876 309 73 66 639 129 72 22 170 380 279 33 97 102 967 72 338 630 26 32 41 147 18 589 32 4072 619 84 131 1806
internal_value=-1.37626e-11 0.00510879 -0.00100876 -0.00137978 0.0039386 0.0015721 0.0196168 -0.00430976 0.0119564 -0.00143116 -0.0127497 0.0225996 0.0392339 0.010954 0.0132424 0.0350763 0.0165334 0.0206163 0.010402 0.0225606 0.0072592 -0.00131818 -0.0266592 1.15022e-05 0.0048082 0.000821313 -0.00290224 0.00676684 0.00287384 -0.0104869
internal_weight=20286 3345.08 16940.9 16431.3 3225.37 2490.33 198.232 89.3068 735.037 187.272 127.309 59.9626 108.925 509.617 479.24 68.3567 547.766 440.727 65.01 50.6301 36.7786 16416.9 16.5832 2292.1 45.0563 2176.88 1005.23 441.892 406.248 563.333
internal_count=69200 11897 57303 56089 11588 9087 437 211 2501 894 659 235 226 1214 1112 145 1607 1269 139 113 91 56023 50 8650 202 8061 3989 1564 1480 2425
is_linear=0
shrinkage=0.05


Tree=4
num_leaves=31
num_cat=0
split_feature=8 8 3 3 7 9 2 8 9 9 9 8 9 9 9 11 9 11 2 6 11 8 8 3 2 9 6 8 9 0
split_gain=50.4829 32.5475 28.5839 24.724 18.7505 17.4665 14.5551 14.435 14.0844 26.7615 17.0242 37.2164 14.9577 22.1121 17.2658 18.5717 15.0058 18.7937 14.8863 14.6332 35.5009 13.8548 17.0532 20.2756 19.0402 22.1954 17.9773 16.3509 17.3128 17.1948
threshold=7.3551926191568073 7.316481630734927 32.500000000000007 23.500000000000004 1.688848829460152 52.289224338282253 26.500000000000004 6.9929189515285879 32.769494752586262 24.51421326817567 34.297535758933769 6.8938005557064921 19.384627789894406 21.180989817148998 22.828840375747845 6.2426760384754063 10.562574124414276 6.6910132503283783 6.5000000000000009 13.691655002358418 2.7804444877068524 5.2297850129862091 6.4603339817980237 12.500000000000002 12.500000000000002 64.633326985827537 41.368641399029947 7.2413438782730228 77.274890707947932 25.500000000000004
decision_type=2 2 2 2 2 2 2 2 2 2 2 2 2 2 2 2 2 2 2 2 2 2 2 2 2 2 2 2 2 2
left_child=1 3 -2 4 8 -3 -5 -6 9 12 11 -10 16 -14 -15 -16 17 -1 -11 20 -18 -12 23 -23 -24 26 -26 28 -27 -30
right_child=2 5 -4 6 7 -7 -8 -9 10 18 21 -13 13 14 15 -17 19 -19 -20 -21 -22 22 24 -25 25 27 -28 -29 29 -31
leaf_value=0.0027066411838404846 -0.0014632051818572397 0.0093934910397227914 0.010827286123690497 0.061816771193296441 0.01353276072073435 0.038514801140854565 -0.0086998380020137014 -0.0061140130188272789 0.047206754570624704 -0.039307591472735125 0.058810853685359633 -0.017887481028535112 0.026861731945768266 -0.017839470812615259 -0.017273860440435756 0.029626688128042297 0.059066481038679924 0.067099502850702208 -0.010139253607905779 -0.017616668725964311 -0.068835876125632856 0.0019037381896265864 -0.0041823373940166253 -0.030694333032846861 -0.0082759330278958307 -0.015125301026321614 0.027060868736448387 0.027026423703300762 0.014396064904838114 -0.023686075258328349
leaf_weight=87.463447209447622 16267.714264087379 96.70790995657444 487.23653939366341 29.038498438894749 647.28024970367551 110.12218648195267 9.7829684838652593 109.27561755105853 64.317835457623005 52.586132990196347 11.135918974876402 33.339949432760477 125.92679719254375 79.384517181664705 31.859281055629253 62.544092293828726 18.828829746693376 13.017743542790411 260.10380218923092 179.9308860283345 7.6212296783924094 125.80113711208105 341.55889470875263 76.835643824189901 42.802471876144409 136.52173937857151 226.21361546218395 59.803739160299301 171.34253227710724 35.84154924377799
leaf_count=224 56089 290 1214 55 2013 270 38 422 211 461 24 162 330 393 172 154 46 22 1219 965 46 483 1468 449 157 399 758 144 415 107
internal_value=1.90376e-11 0.00570607 -0.0011058 0.00440036 0.00388755 0.0248985 0.0440467 0.010695 0.00159323 -0.00316257 0.00489146 0.0249839 0.00296261 0.0109073 -0.000653303 0.0137987 -0.00479703 0.011049 -0.0150446 -0.012512 0.0222131 0.00329341 0.00278529 -0.0104568 0.00543136 0.0103139 0.0214385 0.00289723 -0.00130117 0.00780809
internal_weight=20001.9 3246.99 16755 3040.16 3001.34 206.83 38.8215 756.556 2244.78 919.267 1325.52 97.6578 606.577 299.715 173.788 94.4034 306.862 100.481 312.69 206.381 26.4501 1227.86 1216.72 202.637 1014.08 672.526 269.016 403.51 343.706 207.184
internal_count=69200 11897 57303 11337 11244 560 93 2435 8809 4032 4777 373 2352 1049 719 326 1303 246 1680 1057 92 4404 4380 932 3448 1980 915 1065 921 522
is_linear=0
shrinkage=0.05


Tree=5
num_leaves=31
num_cat=0
split_feature=8 8 9 3 3 2 9 1 2 8 1 5 8 8 2 8 5 8 5 5 8 2 7 0 8 11 9 6 2 3
split_gain=51.6955 28.3716 38.1372 20.5365 16.0284 15.7248 22.3391 15.7916 17.3177 15.3347 13.846 13.8441 13.4754 12.5903 12.5704 12.2186 12.0858 11.6088 11.0813 11.0808 11.0561 27.9104 10.8197 10.5152 10.0931 9.59154 9.5265 24.4736 14.2811 37.009
threshold=7.3551926191568073 7.2868927126647112 50.507029436846189 23.500000000000004 32.500000000000007 36.500000000000007 182.4318032614888 17.500000000000004 46.500000000000007 7.0602630169047611 27.500000000000004 8.8397519316747584 9.7701281020322615 9.920505179041827 26.500000000000004 9.9761179965969404 9.920505179041827 7.2120912376341417 6.7881798735877821 10.312982543948364 7.0525492657249069 12.500000000000002 6.6931358226041331 28.500000000000004 7.0403353449601811 8.5426334768655803 144.85657468121096 112.76764757564224 26.500000000000004 18.500000000000004
decision_type=2 2 2 2 2 2 2 2 2 2 2 2 2 2 2 2 2 2 2 2 2 2 2 2 2 2 2 2 2 2
left_child=1 3 -3 9 26 12 11 13 -9 10 20 -7 -6 -8 -5 25 -13 -11 -19 -20 22 -22 24 -10 -1 -14 28 -28 -2 -30
right_child=4 2 -4 14 5 6 7 8 23 17 -12 16 15 -15 -16 -17 -18 18 19 -21 21 -23 -24 -25 -26 -27 27 -29 29 -31
leaf_value=0.0058111464792344461 -0.0016206983219381405 0.0027466503081088208 0.040636893708017964 0.062157423835463778 0.032104539754476996 -0.063223882934385189 -0.00016553878015988644 0.02220503708599933 -0.077233119291779104 -0.0099423121016527696 -0.016170924217287629 0.01348720896517016 -0.033492434001549914 -0.051789152652930437 -0.0079011007938474646 -0.059290185819941665 -0.031173483402815345 -0.033057265651852435 0.010015169923063581 -0.062183551716439411 -0.017876182127170522 0.060309475134024328 0.032470316808714587 0.00030281827608783711 -0.022645258639965023 0.03517584403462555 -0.012128811317561911 0.0025050639334380088 0.053586189783895059 0.0021139830129674277
leaf_weight=2172.0726377759129 13157.225580738857 134.40685843117535 131.27053783088923 24.24653372913599 96.798313423991203 15.738564401865004 70.007645055651665 169.73304356634617 6.9483283832669285 310.6771078556776 70.245335642248392 28.057717382907867 7.5696518495678964 14.207700509577988 8.7002251967787725 7.935429159551858 32.924034185707569 17.705347064882517 204.13989525288343 5.4564235657453528 18.610844330862164 29.518880285322666 37.549286760389805 11.796456858515738 31.614049237221479 15.494507502764462 655.49554974958301 506.44851649925113 35.630823284387589 1755.8778017424047
leaf_count=7926 46391 468 337 55 210 54 189 377 35 1367 427 67 21 67 38 37 85 87 783 32 102 54 72 28 149 44 2608 1811 66 5213
internal_value=4.39038e-11 0.00582258 0.0214681 0.00440418 -0.00112192 0.00790877 0.0024197 0.00912552 0.0171684 0.00395786 0.00569467 -0.0214153 0.0229165 -0.00887479 0.0436571 -0.00577384 -0.0106251 -0.00365989 0.00492696 0.00813562 0.00636558 0.0300766 0.00585639 -0.0284383 0.00540291 0.0126389 -0.00138941 -0.00575045 -0.00105044 0.0031377
internal_weight=19784.1 3196.21 265.677 2930.54 16587.9 477.211 349.413 272.693 188.478 2897.59 2359.61 76.7203 127.798 84.2153 32.9468 30.9996 60.9818 537.979 227.302 209.596 2289.37 48.1297 2241.24 18.7448 2203.69 23.0642 16110.7 1161.94 14948.7 1791.51
internal_count=69200 11897 805 11092 57303 1214 902 696 440 10999 8730 206 312 256 93 102 152 2269 902 815 8303 156 8147 63 8075 65 56089 4419 51670 5279
is_linear=0
shrinkage=0.05


Tree=6
num_leaves=31
num_cat=0
split_feature=8 8 9 3 3 2 9 9 9 8 8 3 8 3 3 9 8 8 0 1 7 8 11 11 7 7 5 2 9 8
split_gain=38.6517 20.9281 35.6374 19.7399 16.1961 13.4171 28.3989 31.1131 24.0719 19.0858 18.0491 22.1771 12.154 15.2653 13.2463 14.1055 21.8809 13.1113 13.5782 15.3443 14.0731 11.984 11.9242 11.902 11.4718 11.5273 14.2321 11.3834 15.7526 10.9326
threshold=7.3551926191568073 7.2868927126647112 52.289224338282253 32.500000000000007 23.500000000000004 5.5000000000000009 32.769494752586262 34.297535758933769 24.229736523619991 5.2297850129862091 6.9842733465846791 7.5000000000000009 6.3099697295213817 8.5000000000000018 9.5000000000000018 43.040536183479574 6.6969495686663238 6.6756628093361821 26.500000000000004 22.500000000000004 1.0000000180025095e-35 7.1560343593952558 12.082837366742742 12.018542432529461 6.6931358226041331 6.2218677640145197 8.7861634083826452 36.500000000000007 185.18912073122485 7.0602630169047611
decision_type=2 2 2 2 2 2 2 2 2 2 2 2 2 2 2 2 2 2 2 2 2 2 2 2 2 2 2 2 2 2
left_child=1 4 -3 -2 5 8 22 10 24 -9 11 -8 13 -11 -14 16 -16 -17 19 29 -20 -6 -7 -15 25 -1 -27 -5 -29 -19
right_child=3 2 -4 27 21 6 7 9 -10 12 -12 -13 14 23 15 17 -18 18 20 -21 -22 -23 -24 -25 -26 26 -28 28 -30 -31
leaf_value=0.0052237730195157745 -0.00128097004677238 0.0039992408380398435 0.042135616296216843 0.023018448561371627 -0.0098152698449456375 -0.012621499039484389 -0.0020037512344985606 0.055367700472850792 0.031447580523013823 0.032214682675623295 -0.01255784319563142 0.045966030649119631 -0.010257489115876962 -0.0090036440387594296 0.043138811472959185 -0.013103470664534192 -0.0039703069278294824 0.01034234199928041 -0.00070409298962729105 0.034514656232796113 -0.043824795650977716 0.06092275393294997 0.0093482053834113062 -0.043232783252793089 0.030953102294231469 -0.05947541932434626 0.031351073945769213 -0.012751635825087745 0.011605303006997345 -0.0038623107875971592
leaf_weight=811.62612868659198 15869.880726316944 159.83488189429045 99.326578620821238 114.38774154521525 8.3761661350727099 417.50799156539142 32.392236597836018 16.588593482971191 100.21311010047793 18.078468360006809 25.338197458535433 94.051515273749828 157.20353107899427 117.06123519688845 57.916388478130102 106.5041253361851 42.911651745438576 441.22319397702813 74.764135122299194 50.883458618074656 25.333048205822706 20.994095336645842 72.484257817268372 32.432412892580032 42.377219036221504 14.560415223240854 6.1283599585294715 92.70408977009356 233.78545144945383 195.46660321205854
leaf_count=2761 56089 512 293 312 38 2381 103 24 244 42 154 183 772 536 138 436 190 1147 279 127 107 55 270 198 102 63 14 278 624 728
internal_value=-2.60401e-11 0.0049867 0.0186154 -0.000991051 0.00380242 0.00343496 0.00106894 0.00450661 0.00823573 0.00207011 0.0259588 0.0336772 0.0014002 -0.0111816 0.00323005 0.00536099 0.0230895 0.0033619 0.00558825 0.00809303 -0.0116173 0.0407488 -0.00937153 -0.0164296 0.00557636 0.00428431 -0.0325711 0.00944492 0.00468935 0.00598145
internal_weight=19552.3 3241.58 259.161 16310.8 2982.42 2953.05 1978.14 1488.15 974.905 1336.37 151.782 126.444 1319.78 167.572 1152.21 995.003 100.828 894.175 787.67 687.573 100.097 29.3703 489.992 149.494 874.692 832.315 20.6888 440.877 326.49 636.69
internal_count=69200 11897 805 57303 11092 10999 7815 5164 3184 4724 440 286 4700 776 3924 3152 328 2824 2388 2002 386 93 2651 734 2940 2838 77 1214 902 1875
is_linear=0
shrinkage=0.05


Tree=7
num_leaves=31
num_cat=0
split_feature=8 3 2 3 8 9 11 6 6 7 11 3 8 8 9 7 7 8 9 7 6 4 7 5 6 7 8 7 9 9
split_gain=25.0215 18.9672 19.9785 15.051 11.1065 29.2796 15.6002 13.0402 11.7765 11.2208 10.9667 10.8786 21.0254 19.9562 16.9833 17.3661 16.5278 14.982 14.1853 12.4942 10.0375 9.52108 9.09458 9.00249 10.4606 8.83295 12.6145 8.7509 8.5564 8.9196
threshold=7.3551926191568073 22.500000000000004 24.500000000000004 32.500000000000007 7.2868927126647112 52.289224338282253 8.7925185142408946 72.278500019678688 66.602207209370434 1.688848829460152 9.1805180919870768 5.5000000000000009 6.4603339817980237 6.3525125352834593 24.229736523619991 2.0190857621455094 1.8231066760381942 6.9421321966223344 19.832562228204278 6.6931358226041331 51.644396178147524 1.0000000180025095e-35 1.0000000180025095e-35 8.0800284846210708 60.777476113389405 3.1393675548530298 6.6969495686663238 7.6099143459263265 159.08926183776887 162.86347845060411
decision_type=2 2 2 2 2 2 2 2 2 2 2 2 2 2 2 2 2 2 2 2 2 2 2 2 2 2 2 2 2 2
left_child=1 4 -3 27 9 6 7 8 20 -1 -8 14 13 -13 15 18 -14 23 21 -17 -6 -11 -7 -16 -25 26 -18 -2 -5 -30
right_child=3 2 -4 28 5 22 10 -9 -10 11 -12 12 16 -15 17 19 25 -19 -20 -21 -22 -23 -24 24 -26 -27 -28 -29 29 -31
leaf_value=0.00056398355907493825 -0.0010214095379120327 0.045302196852353149 0.0031931584255752037 -0.022076644368484371 0.0061528812038329122 0.026786108565411627 0.075456258185936376 -0.032870171714838844 0.05348839628721648 0.012306829252640872 0.014813756288799078 0.00058074511021954088 -0.046940442645555969 0.056481767931231878 0.065892679644657601 -0.0026377133196248729 -0.03799410741272765 -0.016203747807222155 -0.010311048922539014 0.027422120719122381 -0.038993355006296027 0.04030576505049048 0.064410610191737674 -0.012688433839987984 0.041702805022758263 -0.04385027527317336 0.01642900629050063 -0.062328639560269621 0.036866982723229552 0.008055542434409594
leaf_weight=2069.3438970334828 15777.311822509393 56.249231144785881 56.422281509265304 21.751869849860668 57.980395797640085 40.629664354026318 9.4303401187062246 34.632078943774104 10.366068810224531 52.062340073287487 35.595476727932692 55.180656425654888 32.888592105358839 22.465182069689035 23.926860332489014 287.99166364222765 13.890693638473747 13.699006661772726 28.762904584407806 39.283410929143429 15.630897864699362 72.848071403801441 26.561233565211296 11.731358028948305 35.863065183162689 11.671849578619002 45.601749245077372 5.8227661345154038 28.929970566183329 375.99168520048261
leaf_count=8368 56023 151 221 62 170 157 16 145 21 129 105 179 253 56 42 894 85 47 75 102 55 162 65 42 74 104 179 66 83 1069
internal_value=7.05083e-12 0.00406961 0.0242153 -0.000793523 0.00332492 0.0138692 0.00245808 -0.00705385 0.00359275 0.00246098 0.0275149 0.00770997 -0.00293493 0.0167545 0.0111262 0.00748093 -0.0176275 0.0316986 0.0213462 0.000970422 -0.00343364 0.0286359 0.0416595 0.0408737 0.0282961 -0.00408051 0.00372193 -0.00104403 0.00847292 0.010114
internal_weight=19370.5 3160.71 112.672 16209.8 3048.04 230.826 163.635 118.609 83.9774 2817.21 45.0258 747.867 181.699 77.6458 566.169 480.948 104.053 85.2203 153.673 327.275 73.6113 124.91 67.1909 71.5213 47.5944 71.1643 59.4924 15783.1 426.674 404.922
internal_count=69200 11897 372 57303 11525 734 512 391 246 10791 121 2423 856 235 1567 1362 621 205 366 996 225 291 222 158 116 368 264 56089 1214 1152
is_linear=0
shrinkage=0.05


Tree=8
num_leaves=31
num_cat=0
split_feature=8 8 9 3 7 11 6 6 6 11 0 3 2 2 9 11 3 2 9 8 8 9 5 9 9 9 9 8 9 6
split_gain=21.788 18.8532 14.1302 11.5687 10.9639 13.5386 12.4233 14.6617 11.0561 10.9535 11.6831 10.8294 28.8323 21.1288 18.4528 24.9723 22.4936 20.904 29.0971 19.7072 19.3101 18.6649 17.6169 17.1397 16.9138 47.8311 27.6158 26.0479 20.4334 19.3485
threshold=7.3551926191568073 7.3346156743345849 52.289224338282253 23.500000000000004 1.688848829460152 8.6971337193275939 48.406841435050488 70.579198034052595 26.188317965007496 9.9518620818861656 8.5000000000000018 20.500000000000004 26.500000000000004 21.500000000000004 91.09470908429067 26.716845938242752 16.500000000000004 17.500000000000004 78.679021257616199 8.8963758719202541 7.4789713273824114 77.780319646439224 10.235907204034733 99.012312793286398 69.315805681335135 66.770890821136774 71.073270527613104 8.7189064229639293 72.925995889463238 176.19351725026226
decision_type=2 2 2 2 2 2 2 2 2 2 2 2 2 2 2 2 2 2 2 2 2 2 2 2 2 2 2 2 2 2
left_child=1 3 -3 4 5 -1 8 -8 -7 -10 -11 12 14 23 15 16 17 18 19 24 -16 -21 -19 -13 25 -2 -26 29 -29 -28
right_child=11 2 -4 -5 -6 6 7 -9 9 10 -12 13 -14 -15 20 -17 -18 22 -20 21 -22 -23 -24 -25 26 -27 27 28 -30 -31
leaf_value=-0.0015301212051740266 -0.00084818279356658815 0.0058356190291627376 0.043574001908633316 0.036888629500169287 0.0081521513258983169 0.014271498448783192 0.023027006438647666 0.0051411868444058975 0.0073993837169599209 -0.060104064955196213 -0.013923469919855476 0.043829905687237332 0.038479220089133799 0.00046799581394870024 0.043534718022022627 -0.043172528684959743 0.0050641405056203598 -0.018253718830651095 0.0079571658085700794 -0.005819671764700057 -0.0066916829507757125 -0.039344107742761723 0.017881257017551361 0.008886770120395104 -0.028404624535248019 0.020283687975824 0.0052485838026716351 -0.069476634384444055 -0.013761743311980174 -0.075289258298047404
leaf_weight=1538.4750086925924 3177.3675216492265 48.172838389873505 51.131064865738153 25.158065907657146 733.07635523937643 46.179475255310535 159.39617685601115 407.51421779207885 35.289646655321121 19.088147450238466 48.477183308452368 46.467757508158684 44.513928346335888 5389.1098939124495 19.325318522751331 34.699164867401123 1425.0185906365514 292.74823709577322 766.17298059538007 1883.5310688409954 1957.4008854478598 42.454450093209743 38.122121594846249 143.36036774888635 131.2148494720459 292.42215611413121 370.52851082384586 20.262410677969456 87.612923353910446 7.6105890274047843
leaf_count=6372 13147 123 186 93 2501 158 500 1544 138 96 186 94 111 17811 40 147 3969 983 2178 8412 7203 195 101 458 465 737 966 59 200 27
internal_value=5.51352e-12 0.00383125 0.0252669 0.00312468 0.00284035 0.0011131 0.00679305 0.0101701 -0.00605279 -0.0151779 -0.0269701 -0.000737337 -0.00167647 0.0010455 -0.00184595 -0.000841486 -0.00066939 -0.00181852 -0.00121957 -0.00238887 -0.00620065 -0.00655865 -0.0140903 0.0174405 -0.000423882 0.00093274 -0.00805021 -0.0025549 -0.0242268 0.00362764
internal_weight=19281.9 3111.96 99.3039 3012.65 2987.5 2254.42 715.945 566.91 149.034 102.855 67.5653 16169.9 10591 5578.94 10546.5 8569.77 8535.07 7110.05 6779.18 6013 1976.73 1925.99 330.87 189.828 4087.02 3469.79 617.229 486.014 107.875 378.139
internal_count=69200 11897 309 11588 11495 8994 2622 2044 578 420 282 57303 38940 18363 38829 31586 31439 27470 26386 24208 7243 8607 1084 552 15601 13884 1717 1252 259 993
is_linear=0
shrinkage=0.05


Tree=9
num_leaves=31
num_cat=0
split_feature=8 9 2 3 9 9 8 3 2 6 5 8 0 11 8 11 11 7 9 3 8 8 9 11 11 6 0 11 3 11
split_gain=16.2807 20.6838 25.554 10.1544 25.6358 26.8504 26.9117 21.576 20.1286 17.3362 13.638 13.1305 15.43 11.6168 20.7438 10.8319 10.1647 12.6685 12.8266 11.6439 9.89977 9.48315 14.9741 15.3052 17.6272 9.13492 12.2985 14.4443 10.3829 20.8867
threshold=7.4465609094886984 95.373311182509028 24.500000000000004 25.500000000000004 122.83726380121182 121.8430216087762 8.0973452591942578 27.500000000000004 28.500000000000004 113.20077111695763 9.6394457199650585 9.2970562545203439 25.500000000000004 2.7804444877068524 7.4603226669608178 9.2258761086903274 2.0190857621455094 1.688848829460152 78.282533819663072 15.500000000000002 9.3880489939306937 9.0652156727672182 135.81658165000093 10.376955210282995 25.467623478999098 26.188317965007496 8.5000000000000018 8.126788713163636 32.500000000000007 18.721783057290462
decision_type=2 2 2 2 2 2 2 2 2 2 2 2 2 2 2 2 2 2 2 2 2 2 2 2 2 2 2 2 2 2
left_child=1 -1 -3 13 5 6 -5 8 10 -10 -8 21 -13 14 -2 -7 -16 -18 -19 -20 -14 25 -23 -24 -25 -6 27 -27 -28 -30
right_child=3 2 -4 4 11 15 7 -9 9 -11 -12 12 20 -15 16 -17 17 18 19 -21 -22 22 23 24 -26 26 28 -29 29 -31
leaf_value=0.0024053198761315462 -0.049711562602213925 0.04876925481260741 0.0012705056281884844 0.051841900932535018 -0.051136910097515177 0.017900304656564378 -0.0093509887261918993 0.059541191648036167 -0.059411779211080776 -0.0014846446509828122 0.039734306919100806 0.00040639080870996262 0.032752719828413379 -0.0020194746819636846 0.00045711209801707907 0.066510655876815011 0.0039480347637472612 0.030022203990957209 -0.057618037856130344 0.015983257997472501 0.0097994358453878348 -0.035258018168028732 0.009166594506991756 -0.028676813223784504 0.044437595555695181 0.048569461393484122 -0.0038231437321688553 -0.020610724612009589 0.022006311040394484 -0.024675801120926429
leaf_weight=3299.6161111555994 19.638480097055435 54.566265068948269 58.861240766942501 29.224124193191528 8.8619748651981336 17.126660756766796 33.333015687763691 12.927131958305834 26.735581286251545 24.987722739577293 24.590683154761791 633.90308149345219 56.557113632559776 10245.357354780659 2445.3787504732609 34.637012369930744 433.72234060615301 98.822664063423872 8.5658559352159518 14.419328697025774 277.29544618353248 53.361511066555977 91.115404665470123 73.784161113202572 9.2805027291178686 25.772959873080254 696.64326678216457 10.668488346040247 104.48135823756456 31.091681100428104
leaf_count=12540 75 164 198 56 36 45 86 20 110 82 49 2580 132 37325 9215 48 1560 317 32 50 1011 163 289 275 23 60 2206 35 321 97
internal_value=-1.08805e-11 0.003127 0.0241206 -0.00068668 0.00239853 0.0193304 0.0087262 -0.00155345 -0.00875637 -0.031427 0.0114875 0.000735736 0.00498819 -0.00121609 0.0015089 0.0504273 0.00184409 0.00794942 0.0221972 -0.0114456 0.0136879 -0.00298835 -0.0120844 -0.00498492 -0.020508 -0.000629742 -0.000114472 0.0283165 -0.00135942 0.0113005
internal_weight=18955.3 3413.04 113.428 15542.3 2276.38 203.562 151.798 122.574 109.647 51.7233 57.9237 2072.82 967.756 13265.9 3020.55 51.7637 3000.91 555.53 121.808 22.9852 333.853 1105.06 227.542 174.18 83.0647 877.52 868.658 36.4414 832.216 135.573
internal_count=69200 12902 362 56298 7724 496 403 347 327 192 135 7228 3723 48574 11249 93 11174 1959 399 82 1143 3505 750 587 298 2755 2719 95 2624 418
is_linear=0
shrinkage=0.05


Tree=10
num_leaves=31
num_cat=0
split_feature=8 8 9 7 8 6 8 9 9 2 8 11 6 6 8 8 1 2 9 9 9 9 7 2 2 2 8 8 7 9
split_gain=11.2271 17.212 17.077 9.38719 9.2619 14.667 26.9551 17.1304 20.5121 12.9424 12.7883 12.8648 13.109 12.0086 14.0386 13.3358 12.4833 11.9569 16.4096 24.1944 17.1945 26.6195 24.3068 22.2962 20.4582 34.9368 15.6529 15.502 21.1955 11.6894
threshold=7.3551926191568073 7.316481630734927 52.289224338282253 6.6931358226041331 8.2478668831705502 51.644396178147524 8.0216775870844028 76.720167966855527 76.044669981585756 26.500000000000004 8.2377655295117904 18.926860996070477 63.966540095796368 31.027513055112461 7.6311641276140216 8.0462694033837376 5.5000000000000009 33.500000000000007 132.45076943450263 131.60568374659408 120.65508400527125 113.43499348739515 1.8231066760381942 26.500000000000004 29.500000000000004 23.500000000000004 7.9215926417910412 7.6202647562294752 1.0000000180025095e-35 53.437168788803064
decision_type=2 2 2 2 2 2 2 2 2 2 2 2 2 2 2 2 2 2 2 2 2 2 2 2 2 2 2 2 2 2
left_child=1 3 -3 -1 5 7 17 8 -2 -8 11 12 -11 14 -9 -16 -15 18 19 20 21 24 26 -22 25 29 -23 -27 -29 -7
right_child=4 2 -4 -5 -6 6 9 13 -10 10 -12 -13 -14 16 15 -17 -18 -19 -20 -21 23 22 -24 -25 -26 27 -28 28 -30 -31
leaf_value=0.0015258777107015583 -0.0048908577790070214 0.0054574587630230485 0.038010560504021532 0.026938400821682223 0.00016436492285416701 -0.0035040654090053298 -0.010844649562304033 0.013695040798217116 0.094932432599562966 -0.053808851644965155 -0.046019391608743548 0.03933939782452546 0.0065466599835314792 0.044002476299267942 -0.074163122302210158 -0.017552479321927286 -0.016442040029898044 0.039009905939779106 -0.026272231356826787 0.057974642431846135 0.076114919536108369 0.041206555425446496 -0.030762065090294978 -0.027278136934880605 0.05977113579560777 0.0062107056627923509 -0.018137741729088417 -0.047612987211287559 0.018769967394905832 0.0055548319715795162
leaf_weight=2981.1895016562194 769.57670491188765 102.63843204081059 66.317710492759943 36.788014560937881 11632.025416837074 513.6175855640322 746.16613611206412 9.8228693008422834 5.1808503270149222 9.7864584326744062 11.492906905710695 27.885898366570473 111.46368380635977 8.9806917458772642 27.084039814770222 16.89104150980711 174.82091530412436 21.87969858199358 50.597132198512554 19.504436954855919 5.5918875336647025 94.162686742842197 16.642319768667221 77.199654337018728 14.906808152794836 28.391259118914604 12.598284110426901 71.285666838288307 14.464454382658003 1161.2314265593886
leaf_count=11235 2998 290 270 102 42886 2533 2766 26 5 31 30 59 254 19 122 48 550 75 237 30 8 182 47 326 30 72 46 273 35 3615
internal_value=2.20608e-11 0.00270506 0.018235 0.00183565 -0.000550739 -0.00261929 -0.000867723 -0.00782519 -0.00422333 -0.00807313 0.00480134 0.00871775 0.00167519 -0.01957 -0.0403471 -0.0524187 -0.0134887 0.00224056 0.00185381 0.00255498 0.00201723 0.0029757 0.0254423 -0.0202948 0.00143877 0.000952716 0.0342037 -0.0258127 -0.0364154 0.00277679
internal_weight=18840.2 3186.93 168.956 3017.98 15653.3 4021.23 3008.87 1012.36 774.758 906.795 160.629 149.136 121.25 237.6 53.798 43.9751 183.802 2102.07 2080.19 2029.6 2010.09 1927.3 123.403 82.7915 1803.9 1788.99 106.761 114.141 85.7501 1674.85
internal_count=69200 11897 560 11337 57303 14417 10649 3768 3003 3140 374 344 285 765 196 170 569 7509 7434 7197 7167 6833 275 334 6558 6528 228 380 308 6148
is_linear=0
shrinkage=0.05


Tree=11
num_leaves=31
num_cat=0
split_feature=2 3 7 8 8 8 8 8 10 2 3 9 2 11 2 3 11 6 11 9 8 2 6 9 9 2 8 11 7 3
split_gain=8.03442 7.25913 18.0507 20.0252 44.6722 25.4425 18.6848 18.0472 14.3646 13.8364 16.8299 13.4622 13.1706 13.2211 10.9932 13.4845 14.4534 11.0975 10.7989 13.3482 17.0007 22.5846 14.4396 11.8318 19.2865 34.6924 17.8993 14.1164 12.7128 12.5524
threshold=1.5000000000000002 20.500000000000004 1.688848829460152 7.6311641276140216 7.7109792004099633 7.8306197475522721 7.6202647562294752 7.8577403655086746 3.5000000000000004 26.500000000000004 18.500000000000004 86.901498532031141 24.500000000000004 17.706202613812703 24.500000000000004 22.500000000000004 15.225664466111438 59.991678906839859 16.560947546946498 107.31177580166265 8.7861634083826452 26.500000000000004 137.29761924418818 110.99106948540025 111.70506476900105 24.500000000000004 8.3436875275419293 5.528649241331105 1.0000000180025095e-35 34.500000000000007
decision_type=2 2 2 2 2 2 2 2 2 2 2 2 2 2 2 2 2 2 2 2 2 2 2 2 2 2 2 2 2 2
left_child=-1 8 3 6 -5 -6 14 -7 9 12 -11 -9 13 -2 15 16 -3 -16 19 20 22 -22 -13 26 25 -25 -21 29 -28 -26
right_child=1 2 -4 4 5 7 -8 11 -10 10 -12 18 -14 -15 17 -17 -18 -19 -20 23 21 -23 -24 24 27 -27 28 -29 -30 -31
leaf_value=0.02001773821236906 4.2115466168066509e-05 -0.0096303435631248935 -0.01848135665113014 -0.04670763427945885 0.027040202649679518 -0.045015942796249153 0.049693288943366894 0.058430330384558173 -0.0039221527930202796 0.057140106581018514 -0.014803475643713263 -0.0079809953717171478 -0.029044708205573772 0.028323614367376067 -0.033002097318498971 0.034546858391903877 0.04493182088283456 0.0063613876362887834 0.0058442270353067944 0.010985885012828562 0.01938448832997831 -0.04005615263893756 0.024211878455947505 -0.028271912902376878 0.0052195769564290775 0.060121854004956635 -0.023365399248658394 -0.0028628943978546415 0.013999302432846347 -0.042262851714811783
leaf_weight=49.992293950170279 10244.483698355034 51.102613065391779 111.24365292862058 48.29087308049202 96.493194721639156 21.107094433158636 33.850071005523205 10.295803055167196 2732.0047141388059 22.699013575911522 12.664411187171934 197.40869688242674 38.760332647711039 41.491396833211184 22.569971229881048 71.486914224922657 15.918181419372557 86.630589406937361 1000.4495232999325 68.576266422867775 265.37691908702254 17.00426235049963 42.294402979314327 16.664661813527346 906.82189417257905 33.243237785995007 176.95692542940378 2239.7688293810934 26.125338308513165 14.135748650878666
leaf_count=173 39398 148 443 338 219 149 60 17 10352 55 28 666 171 149 107 200 36 305 3280 152 815 73 115 59 3035 56 583 7881 74 63
internal_value=-1.66152e-11 -5.36128e-05 0.00145757 0.00186362 0.00115789 0.00160823 0.0148499 0.00112096 -0.00069698 0.000153512 0.0313755 0.00131513 4.65731e-05 0.000156197 0.0100884 0.0194411 0.00332878 -0.0017744 0.00119764 3.6737e-05 0.00749224 0.0158051 -0.00230073 -0.00108103 -0.000233259 0.0306064 -0.0111006 -0.000720218 -0.0185587 0.00449077
internal_weight=18715.9 18665.9 5573.82 5462.57 5181.01 5132.72 281.558 5036.23 13092.1 10360.1 35.3634 5015.12 10324.7 10286 247.708 138.508 67.0208 109.201 5004.83 4004.38 522.084 282.381 239.703 3482.29 3210.63 49.9079 271.659 3160.73 203.082 920.958
internal_count=69200 69027 18874 18431 17575 17237 856 17018 50153 39801 83 16869 39718 39547 796 384 184 412 16852 13572 1669 888 781 11903 11094 115 809 10979 657 3098
is_linear=0
shrinkage=0.05


Tree=12
num_leaves=31
num_cat=0
split_feature=3 9 3 9 8 8 11 2 9 8 8 7 8 11 9 5 9 2 8 8 3 3 8 9 5 1 8 1 5 8
split_gain=10.0613 17.2601 13.2972 15.2039 14.85 15.5754 19.1598 12.7533 13.9098 24.6342 27.7665 35.8718 13.8661 12.9398 13.2221 21.4186 17.6007 16.8504 13.1839 42.1895 16.7211 15.9015 15.6916 12.6848 28.151 17.865 12.6149 16.5849 18.7899 12.404
threshold=20.500000000000004 120.2692848567565 25.500000000000004 124.33100129222767 8.7861634083826452 8.4496726528999719 9.2258761086903274 26.500000000000004 93.931913247873169 8.6558895416120993 7.810751326453774 1.0000000180025095e-35 8.8215681095893199 26.716845938242752 77.274890707947932 9.8177831919344243 85.193959865480437 21.500000000000004 7.8306197475522721 7.8042152856700975 16.500000000000004 18.500000000000004 7.8927093910793937 86.409442426148786 8.1983506038876275 23.500000000000004 8.5406482803968498 6.5000000000000009 8.2999634098614994 9.4881603774922905
decision_type=2 2 2 2 2 2 2 2 2 2 2 2 2 2 2 2 2 2 2 2 2 2 2 2 2 2 2 2 2 2
left_child=7 -2 -3 4 5 -4 -7 8 13 10 11 -10 -9 14 17 16 26 18 19 20 -1 -22 -20 24 -18 -26 27 -16 -29 -28
right_child=1 2 3 -5 -6 6 -8 12 9 -11 -12 -13 -14 -15 15 -17 23 -19 22 -21 21 -23 -24 -25 25 -27 29 28 -30 -31
leaf_value=0.00058401713919735746 0.0053661177314676825 -0.004355765633944457 -0.0036685414335328524 0.0010757019388480614 -0.0066273552339710193 0.0065164990318403275 0.070041525807989877 0.040739535069349152 -0.036683799736951607 -0.0021578847482781288 -0.025924295180104147 0.043909326056345406 -0.026655715201359453 -0.033386288217999022 -0.043132879533632706 -0.0037281831135996101 -0.062599721690622098 0.060255269186529153 -0.018338852631909319 0.037049771366661127 -0.036666469286965202 0.020898422964569521 -0.0024550448317177029 0.002687536516885628 -0.014520036159736098 0.042143106378968329 0.018028333323589069 0.019568531993737859 -0.0032357779168937654 0.0016677765720609931
leaf_weight=4021.0906017124653 2094.3358429670334 1309.5911394376308 20.518898833543062 2013.5495757106692 34.448721811175346 18.282825633883476 33.838825419545174 34.778154522180557 22.565914291888475 1145.6774288155138 237.56863098219037 35.571076773107052 9.7776432484388334 29.424263879656792 18.496827751398087 836.71329095959663 24.789157826453447 11.172223091125487 160.96681826561689 79.010881416499615 54.730976730585098 15.364505268633364 4568.2407829519361 663.46463637799025 60.459244810044765 18.067485045641661 512.48495026677847 144.73635041713715 240.30028988420963 149.69224570319057
leaf_count=15329 6500 4911 113 7130 127 40 53 84 66 4817 1081 82 27 183 73 2688 95 22 809 235 218 39 19086 2151 191 49 1240 399 687 675
internal_value=-2.93925e-11 0.00178943 -0.00039432 0.00205205 0.0204099 0.033232 0.0477587 -0.000754924 -0.000846097 -0.00547872 -0.0183449 0.012627 0.0259498 -0.000270916 -0.00018677 0.0029002 0.00592671 -0.00111149 -0.00118852 0.000860876 0.000161979 -0.0240486 -0.00299568 0.00014977 -0.016147 -0.00148294 0.0100832 0.00311473 0.00533643 0.0143299
internal_weight=18619.7 5524.57 3430.23 2120.64 107.089 72.6405 52.1217 13095.1 13050.6 1441.38 295.706 58.137 44.5558 11609.2 11579.8 2669.2 1832.49 8910.58 8899.4 4170.2 4091.19 70.0955 4729.21 766.781 103.316 78.5267 1065.71 403.533 385.037 662.177
internal_count=69200 18874 12374 7463 333 206 93 50326 50215 6046 1229 148 111 44169 43986 8248 5560 35738 35716 15821 15586 257 19895 2486 335 240 3074 1159 1086 1915
is_linear=0
shrinkage=0.05


Tree=13
num_leaves=31
num_cat=0
split_feature=2 9 1 7 7 8 8 2 8 9 8 8 9 8 8 2 11 9 0 11 9 9 6 4 2 5 10 8 9 3
split_gain=7.2936 7.3763 13.061 12.6599 14.5303 22.2138 26.6005 23.6316 27.2435 16.6392 14.2966 23.215 15.0234 11.7195 14.1581 14.1718 14.4536 11.5924 19.6237 10.7906 10.763 10.659 9.93182 9.46571 9.28296 10.6939 9.25227 9.12545 10.3911 19.0692
threshold=1.5000000000000002 74.929200548607369 29.500000000000004 1.688848829460152 1.0000000180025095e-35 8.3107165124719824 8.6407368668644349 39.500000000000007 8.4251306200427045 152.05513912802465 8.2478668831705502 8.1419964235623503 76.720167966855527 8.8963758719202541 8.8582725675149323 14.500000000000002 2.0190857621455094 61.841912573672893 8.5000000000000018 26.716845938242752 74.515850584554187 24.229736523619991 13.691655002358418 1.0000000180025095e-35 24.500000000000004 7.7229197471864799 4.5000000000000009 6.6465715999091204 83.8380796031865 20.500000000000004
decision_type=2 2 2 2 2 2 2 2 2 2 2 2 2 2 2 2 2 2 2 2 2 2 2 2 2 2 2 2 2 2
left_child=-1 2 13 4 27 9 7 8 -7 10 11 12 -6 14 -2 16 23 18 -18 -8 21 -15 -23 -16 25 -5 -26 -3 -29 -30
right_child=1 3 -4 24 5 6 19 -9 -10 -11 -12 -13 -14 20 15 -17 17 -19 -20 -21 -22 22 -24 -25 26 -27 -28 28 29 -31
leaf_value=0.019317480682496269 -0.00016346920501667558 -0.030712374332780751 -0.013390758932423639 0.018516248022075125 0.056059765149648361 -0.0031444374914861976 0.0048050358553376324 0.062393510965746704 -0.043513320639507393 -0.05442916932327805 0.034875098218546639 -0.022749407244123505 0.012657260442690693 -0.022381297639459154 0.018254096851640374 -0.047070764479824181 0.063764696519079719 0.056918126184326803 -0.016336441272698548 -0.02711954687563525 -0.038601237545101356 0.029668406977082614 -0.003714717507173801 -0.048479778087750863 -0.035704040684661015 -0.0074017434352675535 0.016658067824300474 0.0046151754905204836 -0.0048302749269409986 0.0012830822741149617
leaf_weight=48.733899343758821 6496.7540065478534 23.766637790948153 212.0486947465688 44.707229696214199 20.891129907220602 97.148040026426315 1313.6567911170423 9.0519008338451368 73.348563559353352 8.9555657245218736 73.346535604447126 45.661654457449913 436.9246455989778 76.204536647535861 12.310261577367784 7.4213782362639895 12.55750662833452 33.887775681912899 19.550095599144697 27.013168644160032 22.96613797545433 22.613224446773529 1511.8999149911106 9.3494521677494031 46.302970722317696 362.53076661005616 10.315883584320543 1181.7076204121113 1802.0551458783448 4366.2942696548998
leaf_count=173 25326 124 1157 151 60 368 4682 21 313 59 186 237 1218 427 34 34 26 55 105 112 90 91 7168 36 255 1402 41 3455 6928 14866
internal_value=-1.58504e-11 -5.12162e-05 -0.00113856 0.000871434 0.00126608 0.00492898 0.00174136 -0.0163317 -0.0205113 0.0132015 0.0142515 0.0112471 0.0146378 -0.000822706 0.000116854 0.0192718 0.0248888 0.0365204 0.0149917 0.00416179 -0.00461378 -0.00412918 -0.00322277 -0.0105517 -0.00719384 -0.00455643 -0.0261637 0.000219934 0.000319954 -0.000502907
internal_weight=18430 18381.2 8437.56 9943.68 9479.82 2106 1520.22 179.549 170.497 585.78 576.824 503.477 457.816 8225.51 6591.83 95.0765 87.6551 65.9954 32.1076 1340.67 1633.68 1610.72 1534.51 21.6597 463.857 407.238 56.6189 7373.82 7350.06 6168.35
internal_count=69200 69027 34549 34478 32629 7256 5496 702 681 1760 1701 1515 1278 33392 25616 290 256 186 131 4794 7776 7686 7259 70 1849 1553 296 25373 25249 21794
is_linear=0
shrinkage=0.05


Tree=14
num_leaves=31
num_cat=0
split_feature=9 9 8 3 0 11 2 4 6 9 8 8 8 9 7 11 6 0 2 8 8 11 6 11 1 5 9 0 9 7
split_gain=6.06305 15.5604 17.9657 19.1971 18.9284 14.7805 14.6515 17.3476 13.5095 22.3364 13.3759 11.9976 11.5626 11.0478 10.6985 10.636 10.4037 10.1351 9.84188 13.3364 10.9467 15.6887 9.65875 9.37567 8.76429 8.71394 13.6632 8.65385 8.62232 8.34721
threshold=77.274890707947932 80.377047866315834 9.4881603774922905 14.500000000000002 11.500000000000002 2.7804444877068524 20.500000000000004 1.0000000180025095e-35 98.468184878087939 78.679021257616199 8.5271339442028893 8.8963758719202541 8.8582725675149323 78.282533819663072 1.8231066760381942 3.3378381794941299 44.750266074323747 17.500000000000004 17.500000000000004 8.5823229880277925 7.7109792004099633 10.851089130407248 32.101552263636371 17.706202613812703 16.500000000000004 10.312982543948364 37.149599042909465 24.500000000000004 77.780319646439224 1.8231066760381942
decision_type=2 2 2 2 2 2 2 2 2 2 2 2 2 2 2 2 2 2 2 2 2 2 2 2 2 2 2 2 2 2
left_child=11 2 3 4 5 -2 8 23 15 13 -11 12 -1 -10 -14 16 22 -18 20 28 -17 -22 -5 -8 -9 -13 -27 -12 -20 -3
right_child=1 29 -4 6 -6 -7 7 24 9 10 27 25 14 -15 -16 18 17 -19 19 -21 21 -23 -24 -25 -26 26 -28 -29 -30 -31
leaf_value=-0.00026371971347008291 0.0325490357892773 0.00044442203790807152 -0.013833615772981631 -0.025862748797892278 0.039492519826613053 -0.056864727309575328 -0.047597784665523619 -0.012663414694706039 -0.011051472952080298 -0.0049203549112617328 0.0010978721750863703 -0.0057166055087078359 0.011448610296591317 -0.058396203792058302 0.064400485704345312 0.042354469557478326 -0.031198476415136085 0.02792452660632791 0.047430326840414747 0.051177449742100173 0.013132242452485596 -0.03414728604879684 0.041382908721865216 0.019026676431862805 0.055772199197624134 -0.035719684986017991 0.014080572900227007 0.043001395822150103 0.011780539651824615 -0.013860536971656082
leaf_weight=6926.261695433408 8.5192245841026324 8677.387500135228 85.748238142579794 7.4596027173101929 88.62970969080925 10.103107348084448 31.89809362962842 9.1888928413391131 32.060300067067146 67.94528815895319 18.925827413797379 1583.967569405213 75.531334534287453 20.013549782335758 10.917754873633383 20.116938024759293 32.275912307202816 9.3479831516742689 21.023035459220409 44.432455308735371 73.2090924680233 23.077052012085915 18.791943959891796 6.3280621208250514 9.5307389087975007 15.722530100494621 111.07506811618805 35.305797129869461 87.780268888920546 103.19114946201444
leaf_count=27067 18 30688 423 30 174 33 130 31 100 197 47 7894 278 83 25 38 98 21 44 83 182 76 42 16 25 103 475 71 242 466
internal_value=7.73389e-13 0.000870994 0.00772621 0.0104611 0.0298642 -0.0159603 0.00680197 -0.0172566 0.00947904 -0.00182706 0.00985998 -0.000952748 -3.68979e-05 -0.0292475 0.018136 0.0153161 -0.00237467 -0.0179205 0.0197694 0.0280951 0.00880924 0.00180068 0.0222745 -0.0365686 0.0221793 -0.00470697 0.00790549 0.0283778 0.0186688 0.000276307
internal_weight=18265.8 9542.29 761.711 675.963 107.252 18.6223 568.711 56.9458 511.765 174.251 122.177 8723.48 7012.71 52.0738 86.4491 337.514 67.8754 41.6239 269.639 153.236 116.403 96.2861 26.2515 38.2262 18.7196 1710.77 126.798 54.2316 108.803 8780.58
internal_count=69200 33358 2204 1781 225 51 1556 202 1354 498 315 35842 27370 183 303 856 191 119 665 369 296 258 72 146 56 8472 578 118 286 31154
is_linear=0
shrinkage=0.05


Tree=15
num_leaves=31
num_cat=0
split_feature=11 6 0 11 8 8 5 8 11 5 9 9 9 2 6 5 3 2 8 6 3 3 6 9 11 2 11 8 9 8
split_gain=6.45848 13.2846 16.7798 10.0928 10.9336 10.6657 10.5767 17.9416 15.0751 14.6587 10.3323 20.8928 15.1793 24.2227 15.3584 20.7998 13.8714 12.5985 14.2832 11.6437 11.3051 13.6576 24.3349 12.7981 11.1749 10.8186 10.6353 10.4046 20.8855 13.8687
threshold=3.3378381794941299 118.97978181795814 23.500000000000004 4.5668100897479595 8.0216775870844028 8.3662880810067346 8.7519695445092207 8.3777828401190853 4.3085688844284062 9.7246422129293979 87.72144787801524 79.852532880583723 71.70421046063808 16.500000000000004 102.431547675169 9.920505179041827 14.500000000000002 21.500000000000004 7.5935250039630651 51.644396178147524 15.500000000000002 12.500000000000002 51.259766717158094 43.971109280589509 18.247806996082222 17.500000000000004 14.648395350697799 5.2297850129862091 49.530657734870232 6.6883750153911672
decision_type=2 2 2 2 2 2 2 2 2 2 2 2 2 2 2 2 2 2 2 2 2 2 2 2 2 2 2 2 2 2
left_child=1 2 -1 5 10 -2 7 -7 -8 -10 11 12 13 20 16 25 -14 18 -13 -18 21 -5 -23 -24 -20 -16 -22 -25 -29 -30
right_child=3 -3 -4 4 -6 6 8 -9 9 -11 -12 17 14 -15 15 -17 19 -19 24 -21 26 22 23 27 -26 -27 -28 28 29 -31
leaf_value=0.0011783437198358518 -0.0094670418060638292 0.0098248673882769654 -0.024244207598563199 9.6182226578047863e-05 -0.0010477821743179803 0.074647439488558273 0.0043470782140915742 -0.013586375079888075 0.0020648985598263276 -0.041077996104524311 0.0080032391076499676 -0.060651375990063885 -0.027465176156716221 -0.020376318082070285 -0.047600833229485981 0.021739299337432513 0.0021305809335679972 0.0034246606447271115 -0.023624388720009479 0.028151103685437048 -0.030446157369067979 -0.012802772531620181 0.05330664559348075 0.069328818710295712 0.043989030758526892 -0.0061584355134028214 0.030142945511484422 -0.042255900892267675 -0.026944189570954558 0.015082158255737039
leaf_weight=3791.1294464524835 611.5898846834898 449.60310635529459 66.037237755954266 1920.6888064444065 8487.0293115861714 5.9337049126625052 650.49325050413609 198.45949824526906 40.702929344028234 38.135498277842999 633.79276861250401 25.531693037599325 15.327742695808409 131.22905585169792 24.815155327320099 47.845901656895876 57.277840565890074 44.919102748855948 57.978225663304329 172.39224913343787 45.888245362788439 106.67494770511985 19.464908786118031 7.7594068944454184 6.831089921295642 43.098494175821543 8.600044444203375 17.732684411108494 20.602973312139511 415.90811289101839
leaf_count=14357 2523 1793 327 7833 32361 15 2351 847 162 180 2261 116 52 640 79 133 175 156 192 436 161 385 35 12 18 162 24 73 131 1210
internal_value=4.2754e-12 0.00169118 0.000743093 -0.000525632 -4.75519e-05 -0.00433445 -0.000972606 -0.0110249 0.00184451 -0.0188041 0.00217216 0.00101384 0.00186516 0.000575627 0.0114969 -0.00351163 0.0185883 -0.0182161 -0.0289762 0.0216618 0.00164826 0.00213761 0.00880428 0.0135916 -0.0164977 -0.0213012 -0.0208832 0.0119183 0.0109376 0.0130985
internal_weight=18163.5 4306.77 3857.17 13856.7 12311.4 1545.31 933.725 204.393 729.332 78.8384 3824.36 3190.57 3055.31 2694.55 360.757 115.76 244.998 135.26 90.341 229.67 2563.32 2508.83 588.143 481.468 64.8093 67.9136 54.4883 462.003 454.244 436.511
internal_count=69200 16477 14684 52723 46645 6078 3555 862 2693 342 14284 12023 11541 10504 1037 374 663 482 326 611 9864 9679 1846 1461 210 241 185 1426 1414 1341
is_linear=0
shrinkage=0.05


Tree=16
num_leaves=31
num_cat=0
split_feature=2 8 8 8 8 9 7 8 9 9 8 8 11 2 6 8 10 5 2 2 9 9 2 9 8 8 9 6 4 10
split_gain=6.15442 12.2326 15.4535 11.4188 21.3487 10.1661 9.84886 26.0331 14.8017 16.8894 14.4404 37.7792 11.7383 11.5997 11.3691 11.0612 12.4058 12.1154 10.3453 13.7582 10.6313 18.421 10.3729 25.6476 10.426 10.836 14.1779 10.0602 10.6553 9.86432
threshold=14.500000000000002 7.5471246198636157 7.6041352577308619 6.6183154026773954 5.6670459973042577 55.411498172885665 1.0000000180025095e-35 7.8440881173017045 75.521691619203537 85.780593126119598 7.6311641276140216 7.7109792004099633 17.547690009920583 21.500000000000004 165.16097193709726 9.4881603774922905 4.5000000000000009 7.502782111089787 39.500000000000007 33.500000000000007 159.08926183776887 145.9796928702776 26.500000000000004 122.83726380121182 7.958910924679369 8.0462694033837376 143.69576661743949 36.7158983832825 2.0190857621455094 1.0000000180025095e-35
decision_type=2 2 2 2 2 2 2 2 2 2 2 2 2 2 2 2 2 2 2 2 2 2 2 2 2 2 2 2 2 2
left_child=-1 3 -3 4 -2 -4 8 14 13 27 -11 -12 29 -7 -8 17 -17 -14 19 20 21 22 -9 -24 -25 -26 -27 28 -10 -13
right_child=1 2 5 -5 -6 6 7 18 9 10 11 12 15 -15 -16 16 -18 -19 -20 -21 -22 -23 23 24 25 26 -28 -29 -30 -31
leaf_value=-0.001178722665976168 0.050870323069722015 -0.019718869944812395 0.025740416424791048 0.0077844897212372257 -0.023294969117114865 -0.0079782024584450113 0.024409193019684926 0.0011580081392536504 -0.024285607861718784 0.023074555700000967 -0.058058942080405157 0.0093573667340117184 -0.04105602554977205 0.040624387794615135 -0.033464648303776025 0.032028377363223233 0.0070083721851700422 0.0014099510731775313 0.045817393684308927 -0.023874967262561494 0.02009935918506827 -0.016683529264032802 0.050973668145476297 -0.018291810726398405 0.050026543492927601 -0.0025777352900674686 0.030508722113294563 0.0069605627086063342 0.016020808303100677 -0.0023690538185632396
leaf_weight=6869.9415561184287 11.389641121029852 96.267764940857887 39.45214756205678 871.50419628061354 65.527040177956223 751.77026609331369 168.42607896029949 1805.1708845086396 52.89992156997323 61.836609452962875 29.083887036889791 186.67123234272003 17.336699835956097 12.480137564241884 8.9362121522426587 60.945981074124575 264.81759724766016 538.12612002342939 13.166897870600222 52.735260158777237 77.989909738302231 133.52233636751771 36.147694803774357 38.049036666750908 15.835452809929846 115.76803760975599 44.949717059731483 1065.6225502118468 23.76190285757184 4566.1483495179564
leaf_count=29415 24 372 158 2820 468 2984 444 6612 195 140 277 601 71 26 29 195 961 1639 45 243 292 634 91 164 30 414 120 3088 72 16576
internal_value=1.81585e-11 0.000721318 0.000219947 0.00615461 -0.0123127 0.000408469 0.00030993 0.0030264 -0.000583764 0.000150829 -0.00095678 -0.00121918 -0.000925765 -0.00718453 0.0214933 0.00437447 0.0116893 8.4534e-05 0.00162269 0.00137188 0.00195907 0.00131289 0.00248168 0.0120109 0.00544797 0.0105641 0.00667592 0.005702 -0.0117923 -0.00190849
internal_weight=18096.3 11226.3 10277.9 948.421 76.9167 10181.7 10142.2 2510.7 7631.5 6867.25 5724.97 5663.13 5634.05 764.25 177.362 881.226 325.764 555.463 2333.34 2320.17 2267.43 2189.44 2055.92 250.75 214.602 176.553 160.718 1142.28 76.6618 4752.82
internal_count=69200 39785 36473 3312 492 36101 35943 9118 26825 23815 20460 20320 20043 3010 473 2866 1156 1710 8645 8600 8357 8065 7431 819 728 564 534 3355 267 17177
is_linear=0
shrinkage=0.05


Tree=17
num_leaves=31
num_cat=0
split_feature=3 9 2 9 9 9 6 3 8 11 11 11 1 8 8 9 8 0 8 8 8 9 3 8 8 2 2 6 9 9
split_gain=7.0201 17.2082 15.3829 14.3949 21.2595 18.3262 17.0253 17.0999 21.1955 12.6264 11.7158 11.4948 10.9465 10.8539 12.7515 10.6395 10.415 10.1611 10.1135 19.4952 11.0798 17.3072 21.7052 13.3273 12.6784 12.1218 17.1383 11.4122 10.2988 10.1341
threshold=12.500000000000002 57.033985517446773 11.500000000000002 53.437168788803064 52.289224338282253 53.911523261917949 78.724248404156498 9.5000000000000018 6.0740263057169193 17.894197412238693 21.806642164706396 15.582136347304873 11.500000000000002 6.9842733465846791 7.0917124607142616 35.247389991353138 6.5669239024469155 3.5000000000000004 7.8306197475522721 7.8440881173017045 7.810751326453774 120.65508400527125 23.500000000000004 7.1560343593952558 7.7658715388461008 23.500000000000004 14.500000000000002 138.07651006399837 73.377195895095142 88.329104534207701
decision_type=2 2 2 2 2 2 2 2 2 2 2 2 2 2 2 2 2 2 2 2 2 2 2 2 2 2 2 2 2 2
left_child=2 11 3 4 6 -5 7 9 -9 13 -11 -2 -6 -1 17 -4 -3 -15 20 -20 21 22 24 -24 -18 26 -26 -25 -21 -30
right_child=1 16 15 5 12 -7 -8 8 -10 10 -12 -13 -14 14 -16 -17 18 -19 19 28 -22 -23 23 27 25 -27 -28 -29 29 -31
leaf_value=0.0041839592480486234 0.0095087841829433317 -0.02792279282306756 -0.058613040202733939 0.036916759446376866 -0.04686466124267688 0.0048428656523386709 -0.0056756727399004236 -0.047522416871687331 0.014091924906165369 -0.068779955017461744 0.020538981505968723 0.043068490795367016 -0.0095192610091548377 0.016356424563752425 -0.0010870407340598119 -0.0060664179685293888 0.0041850859992228926 -0.027061114895809729 -0.041017741164996596 -0.0043793451872251163 0.026180912520171865 -0.021834498548783013 -0.023977088885483333 0.040209411230523823 0.033138664819369959 0.026965226907478636 -0.039838523679087218 -0.028377139697048914 0.0037549383446612186 -0.00028206403448201084
leaf_weight=1123.442226273939 255.6608864814043 32.363557510077953 9.7126850113272649 51.943131323903799 36.19916146248579 312.29576849192381 1149.5295521728694 14.539354324340819 349.0183477923274 12.321970321238043 5.2294707465916863 28.344479709863663 42.848047263920307 16.18657735362649 1597.3861584831029 1176.9846994057298 1188.3525220174342 80.464059956371784 28.995388679206371 1167.6915450803936 55.939381077885628 64.38207627274096 10.93428488075733 76.249546369537711 9.6841210927814227 12.442706033587454 47.536346305161715 6.5891378484666339 1996.0847855508327 7028.0534941125661
leaf_count=3879 976 332 49 135 188 1403 6282 64 1252 51 25 90 227 69 6920 5051 3778 389 171 4860 133 461 30 224 25 28 207 32 6335 25534
internal_value=-1.68234e-11 0.000696916 -0.00140002 -0.000137767 -0.000923859 0.00941684 -0.000456688 0.00141894 0.0116279 0.000109778 -0.0421673 0.0128581 -0.0266213 0.000373142 -0.0021541 -0.00649649 0.000402352 -0.0197898 0.00048075 -7.73162e-05 0.00435539 0.00349327 0.00469956 0.0279057 0.00296977 -0.0177617 -0.0274877 0.0347539 3.91578e-05 0.000610896
internal_weight=17987.4 12009.3 5978.1 4791.4 4427.16 364.239 4348.12 3198.59 363.558 2835.03 17.5514 284.005 79.0472 2817.48 1694.04 1186.7 11725.3 96.6506 11692.9 10220.8 1472.11 1416.17 1351.79 93.773 1258.02 69.6632 57.2205 82.8387 10191.8 9024.14
internal_count=69200 43216 25984 20884 19346 1538 18931 12649 1316 11333 76 1066 415 11257 7378 5100 42150 458 41818 36900 4918 4785 4324 286 4038 260 232 256 36729 31869
is_linear=0
shrinkage=0.05


Tree=18
num_leaves=31
num_cat=0
split_feature=2 2 9 8 7 9 1 5 8 8 8 8 3 9 6 11 8 8 9 8 9 9 0 9 7 6 7 7 8 9
split_gain=5.86476 5.89977 10.0399 24.2317 17.0591 14.3812 11.2345 9.40946 9.34644 11.0533 9.29424 15.5685 14.0256 18.3815 16.9135 20.7549 11.3156 10.3612 9.00031 11.6288 9.34049 26.3646 15.4463 11.7341 10.1919 9.09201 8.97641 12.5902 13.3406 21.5653
threshold=1.5000000000000002 14.500000000000002 68.823716504550219 8.2277651961584546 2.0190857621455094 69.315805681335135 28.500000000000004 7.2229609455458084 5.6670459973042577 6.6183154026773954 5.335283241553392 6.0157155302145213 10.500000000000002 33.190208480286138 31.027513055112461 9.8692497805958634 5.9306915560924791 4.9495778055293043 10.562574124414276 6.9700280625395949 53.437168788803064 53.911523261917949 29.500000000000004 53.11632053987173 1.8231066760381942 62.013913614981696 1.0000000180025095e-35 1.688848829460152 8.3107165124719824 68.469115186775966
decision_type=2 2 2 2 2 2 2 2 2 2 2 2 2 2 2 2 2 2 2 2 2 2 2 2 2 2 2 2 2 2
left_child=-1 2 6 5 7 -4 10 -5 -3 -10 17 12 13 14 -12 16 -16 -2 19 -13 23 -22 24 -20 -23 -26 -11 28 29 -28
right_child=1 8 3 4 -6 -7 -8 -9 9 26 11 18 -14 -15 15 -17 -18 -19 20 -21 21 22 -24 -25 25 -27 27 -29 -30 -31
leaf_value=0.017409168313235003 -0.0019368214188492364 0.05115979521811518 -0.00080482596945586141 0.038657198838242757 0.025123221433293492 -0.064882660332560835 -0.013396404265457429 -0.010693967115108595 -0.023064972190098874 -0.00011864180283450845 0.022881187472865699 0.050590893857121046 -0.027935437653102847 0.039487063849953701 -0.0081816904159014246 0.030268576129027759 -0.051955618816386662 -0.027899112353514385 -0.0017054959720687092 -0.008849360886704247 0.028586453226806009 -0.001581070605616317 0.028853277344606715 -0.028240209261478078 0.030253489670706891 0.0015468493035055092 -0.0079532952510157334 -0.0048577571935543989 0.0018042654827631793 0.013181900544050183
leaf_weight=48.245684510096908 96.491355400532484 9.154729872941969 12.606201246380804 10.002642374485729 41.916996899992228 28.671514693647623 170.82859071344137 280.72868075966835 49.048800537362695 8187.0281200930476 98.171084741130471 19.217011116445065 21.320367928594351 56.802861705422401 69.12032387778163 30.621057793498039 18.773232571780682 63.864501006901264 4237.785540045239 14.389862284064291 92.232117682695389 1130.4873001221567 47.644389271736145 42.077780645340681 49.45517722517252 62.365936797112226 145.60894460231066 420.03728337958455 1585.0384313724935 705.33936861157417
leaf_count=173 330 24 33 34 146 163 1106 1261 468 29086 281 40 128 136 280 77 92 279 18850 49 241 4800 181 265 178 292 483 1775 5762 2187
internal_value=5.15111e-11 -4.71947e-05 -0.00121941 -0.00918034 -0.00469667 -0.0453133 -0.000748523 -0.00899603 0.000659813 0.000618134 -0.00039725 -7.92532e-05 0.0111245 0.0141695 0.00753271 -0.00518113 -0.0175314 -0.0122768 -0.000659165 0.0251396 -0.000812293 0.00276126 0.000914746 -0.00196637 -0.000156739 0.0142429 0.000723324 0.00313689 0.00451541 0.00956538
internal_weight=17845.1 17796.8 6695.57 373.926 332.648 41.2777 6321.65 290.731 11101.3 11092.1 6150.82 5990.46 294.809 273.489 216.686 118.515 87.8936 160.356 5695.66 33.6069 5662.05 1382.18 1289.95 4279.86 1242.31 111.821 11043.1 2856.02 2435.99 850.948
internal_count=69200 69027 29242 1637 1441 196 27605 1295 39785 39761 26499 25890 994 866 730 449 372 609 24896 89 24807 5692 5451 19115 5270 470 39293 10207 8432 2670
is_linear=0
shrinkage=0.05


Tree=19
num_leaves=31
num_cat=0
split_feature=2 7 2 11 6 7 5 8 8 7 2 5 11 9 0 8 8 5 8 9 6 4 2 3 8 8 9 10 11 9
split_gain=5.44587 5.97304 12.1945 11.9102 9.909 8.02025 6.8012 6.53605 7.6405 6.03598 13.9336 10.1163 12.6103 12.7564 12.3632 11.0381 8.60133 8.61005 11.0559 6.95914 6.86866 7.40751 6.72375 15.4398 17.2203 31.5748 21.1682 17.2827 16.9374 12.6161
threshold=1.5000000000000002 3.4170320927713624 11.500000000000002 7.4207769262905705 15.685586196351197 3.8368942119952005 5.604863746395095 5.335283241553392 6.2118554889446393 2.0190857621455094 19.500000000000004 7.6477392192076472 10.376955210282995 24.229736523619991 11.500000000000002 7.8927093910793937 6.920369834932087 5.9979105148953478 6.2118554889446393 17.668741495684241 54.35655877075525 3.7102239709329745 4.5000000000000009 9.5000000000000018 6.4603339817980237 6.3937906649496519 33.190208480286138 2.5000000000000004 4.9966452632794587 22.828840375747845
decision_type=2 2 2 2 2 2 2 2 2 2 2 2 2 2 2 2 2 2 2 2 2 2 2 2 2 2 2 2 2 2
left_child=-1 9 3 4 6 -6 -3 -8 -9 22 11 15 13 -13 -14 16 17 18 -11 -17 21 -18 29 24 25 26 28 -27 -24 -2
right_child=1 2 -4 -5 5 -7 7 8 -10 10 -12 12 14 -15 -16 19 20 -19 -20 -21 -22 -23 23 -25 -26 27 -28 -29 -30 -31
leaf_value=0.016942332391019482 0.0027376000019535413 0.023092438033480839 0.042792583859218872 -0.03964835304444253 -0.034050286876132922 0.00090742630363049273 -0.095228283537400427 0.024478558289985273 -0.037099512773985703 -0.054194377941502225 -0.047552341127270373 -0.0095033156877021921 -0.061109792170018634 0.0089090924037448765 -0.0079826512913445148 0.067783101085578112 -0.024165914613523191 0.023795705969799498 0.032775918416256655 0.023553769197032393 0.034691813877178262 0.030935343079217172 -0.022275105622222603 0.00032016399748701545 -0.0061964031046161877 0.046741163217358453 0.028358325977488476 -0.02636102513434059 0.0027861775443593344 0.027595866304471056
leaf_weight=47.304375676438212 489.50452093034983 6.04471531510353 12.038268901407717 27.969611316919327 17.650681670755148 232.94960494153202 3.9068015962839118 5.9934565722942343 31.580494502559304 8.7903407439589483 12.761241862550376 124.13858103379607 13.43805270642042 388.36013542301953 59.157650453969836 10.229234352707861 41.649965446442366 67.376024998724461 6.2540295757353297 68.109999787062407 7.7087412327527991 7.1459126099944106 105.26523466873914 13730.632042075507 1850.2093191538006 57.677630260586739 52.128010548651218 9.4033274501562101 187.5165487267077 56.983043432235718
leaf_count=173 1843 26 29 172 87 939 18 21 186 39 83 471 63 1576 283 16 181 196 21 247 27 25 557 51201 9560 130 126 33 716 155
internal_value=-6.43079e-11 -4.52985e-05 -0.00662693 -0.00845132 -0.00552447 -0.00155477 -0.0264566 -0.033677 -0.0272771 8.29378e-05 0.0042833 0.00510773 0.00168653 0.0044492 -0.0178169 0.0143211 0.0058581 0.0161593 -0.0180403 0.0293291 -0.00916771 -0.0160966 -0.000124072 -0.000310428 -0.00413787 0.00510682 -0.000997585 0.0364938 -0.00622423 0.00532961
internal_weight=17739.9 17692.6 338.134 326.095 298.126 250.6 47.5255 41.4808 37.574 17354.4 815.12 802.359 585.094 512.499 72.5957 217.264 138.925 82.4204 15.0444 78.3392 56.5046 48.7959 16539.3 15992.8 2262.2 411.991 344.91 67.081 292.782 546.488
internal_count=69200 69027 1478 1449 1277 1026 251 225 207 67549 3228 3145 2393 2047 346 752 489 256 60 263 233 206 64321 62323 11122 1562 1399 163 1273 1998
is_linear=0
shrinkage=0.05


Tree=20
num_leaves=31
num_cat=0
split_feature=7 7 5 7 7 7 6 6 7 5 7 11 6 0 6 11 5 3 10 6 11 6 5 10 2 3 6 4 5 6
split_gain=5.53794 7.63557 11.9079 6.78992 7.07546 9.97037 5.72238 6.96495 9.2898 6.0295 5.42124 5.3031 18.5005 13.211 15.8914 6.20046 10.0556 9.30889 9.28606 8.64236 11.1137 9.832 9.56599 8.27555 8.25491 8.13057 9.2689 8.73895 7.94761 9.96557
threshold=7.6099143459263265 6.6931358226041331 9.1122897050792933 5.812899918696349 5.2518695283818868 4.9810238527971231 16.608310940125026 24.615653979518807 5.3214785767122548 7.3635434347716364 5.0524089141624291 26.716845938242752 91.982932574049826 40.500000000000007 109.764344205531 17.706202613812703 6.3717670326759723 36.500000000000007 6.5000000000000009 86.468531461982963 18.044163262575911 68.715861795600119 9.0884756805846667 4.5000000000000009 23.500000000000004 14.500000000000002 60.777476113389405 1.0000000180025095e-35 10.396509586279945 93.648428023090688
decision_type=2 2 2 2 2 2 2 2 2 2 2 2 2 2 2 2 2 2 2 2 2 2 2 2 2 2 2 2 2 2
left_child=1 3 -3 4 5 11 9 -8 -9 -6 -7 15 -13 14 -14 18 -17 19 -1 20 -18 22 25 -23 -21 27 -27 -22 29 -26
right_child=-2 2 -4 -5 6 10 7 8 -10 -11 -12 12 13 -15 -16 16 17 -19 -20 24 21 23 -24 -25 28 26 -28 -29 -30 -31
leaf_value=-6.9053682026833167e-05 -0.050625232321762109 0.026242937276002489 -0.047249574170113606 -0.019025606413012291 -0.057195691388287465 -0.072276305445105535 0.050215458939104389 0.044118964563969749 -0.0021683618822816528 0.023365681919241377 -0.017782638255603025 -0.042962774242298052 0.02215885015705317 0.04202763071229651 -0.015493350512231292 -0.054984678028278479 0.033756857734967761 0.029730883479871635 -0.014201526882476832 -0.0052179888011686902 -0.00041797457497859039 0.033800104867963254 -0.028202988083057618 0.0078417866218383099 -0.024652311447424982 0.01910368615158161 -0.017937154132966326 -0.074179583584508685 0.041655802864375389 0.0053929900760818182
leaf_weight=15868.402031555772 5.4003431499004355 50.862567501142621 6.1816101297736159 46.985654801130295 5.2163332439959031 5.2422038167715064 15.097225636243818 15.440389566123484 36.380587078630924 4.1866718754172325 35.278390116989613 31.985344594344497 37.43877093680203 15.824286688119171 111.4318937882781 7.3065618425607672 42.859615191817284 33.780059099197388 117.09222996979952 365.55894123017788 10.858971342444422 43.111732859164476 29.94413573294878 106.67422423511744 29.36272531375289 67.25980238430202 22.55194054543972 6.3716207966208449 14.10645756870508 459.39902818575501
leaf_count=62758 66 170 34 243 31 39 35 39 117 18 161 162 127 38 444 46 123 76 438 1442 46 124 121 362 115 208 97 35 32 1453
internal_value=-2.17796e-11 1.54966e-05 0.0182789 -4.37478e-05 7.1056e-06 -5.9289e-05 0.0151978 0.0203299 0.0116232 -0.0213259 -0.0248326 -1.66838e-06 -0.00816541 -0.00140743 -0.00602438 9.15496e-05 0.00349884 0.00384573 -0.000172573 0.00311588 0.0100087 0.00645945 -0.00322152 0.0153132 0.000499534 0.00376682 0.00980264 -0.0276939 0.00465587 0.003588
internal_weight=17647.6 17642.2 57.0442 17585.1 17538.2 17461.8 76.3212 66.9182 51.821 9.40301 40.5206 17421.3 196.68 164.695 148.871 17224.6 1239.15 1231.84 15985.5 1198.06 329.632 286.772 136.986 149.786 868.427 107.042 89.8117 17.2306 502.868 488.762
internal_count=69200 69134 204 68930 68687 68447 240 191 156 49 200 68247 771 609 571 67476 4280 4234 63196 4158 1116 993 507 486 3042 386 305 81 1600 1568
is_linear=0
shrinkage=0.05


Tree=21
num_leaves=31
num_cat=0
split_feature=8 8 3 3 9 8 8 9 11 9 9 1 9 0 0 9 2 8 9 11 9 9 6 6 5 9 8 11 11 0
split_gain=5.96678 19.6023 10.0008 17.5997 17.6867 16.7781 19.9673 15.4494 13.4543 12.6331 14.2755 23.8765 13.7148 11.5897 10.8196 14.5019 14.5702 15.518 10.2924 9.84126 9.79032 18.2232 9.607 9.2014 9.0875 8.80161 8.61412 14.1522 12.6435 10.6579
threshold=8.9772362412641566 8.8037090682882795 24.500000000000004 20.500000000000004 126.43887782609845 8.8963758719202541 8.9563998930638729 94.300085751108966 25.467623478999098 110.99106948540025 120.65508400527125 22.500000000000004 107.31177580166265 16.500000000000004 7.5000000000000009 58.236121664934139 21.500000000000004 8.8215681095893199 122.20253133044959 7.5464705285947558 97.75641997892528 98.570698716942033 101.86469501187733 60.777476113389405 9.4536639417488164 122.83726380121182 9.0202586044434234 5.9414359141410564 8.1660831998905916 18.500000000000004
decision_type=2 2 2 2 2 2 2 2 2 2 2 2 2 2 2 2 2 2 2 2 2 2 2 2 2 2 2 2 2 2
left_child=1 -1 3 5 9 7 22 14 25 12 13 18 -5 19 -3 23 -17 -18 -12 -11 24 -22 -7 -16 -9 -4 27 -2 -29 -30
right_child=26 2 8 4 -6 6 -8 20 -10 10 11 -13 -14 -15 15 16 17 -19 -20 -21 21 -23 -24 -25 -26 -27 -28 28 29 -31
leaf_value=-9.581982697399018e-05 0.0043145639029953829 0.033403884458117372 -0.027278547436932282 0.020079069345496053 -0.024634920158103344 -0.0049660681809551863 0.019173027905944055 -0.065033858847980783 -0.059926403808222541 0.04381113551828042 -0.016077393710191065 -0.052615260506550049 -0.017936360304964191 0.058138339165310519 0.018170128270310639 0.018580871361574634 0.042538681340475615 -0.051238298216599525 0.045894259182097163 -0.025779866861572159 0.037701778450450883 -0.011627303828007555 -0.026800942978773942 -0.023149590292871409 -0.0068221931092017855 0.0029188891297767506 -0.00085983677536219383 -0.049245220249976115 0.0053849979265324253 -0.024820474122298
leaf_weight=9959.5077212853357 99.78350755572319 62.960961502045393 27.150538727641106 112.51029049605131 21.688899662345648 163.69241569936275 67.35132647678256 11.929411426186563 9.8905936479568464 12.170550972223284 8.7576834335923177 10.960897374898193 30.065129291266203 58.588968031108379 19.302404079586267 280.59618586301804 6.2033506929874429 15.27223314344883 28.514687791466713 8.7202593684196454 25.642319642007351 69.375795044004917 72.77185257896781 44.617015473544598 15.307425290346144 216.91698551550508 6012.8496216470376 29.605058580636978 48.456768378615379 73.501894600689411
leaf_count=38824 376 172 110 265 96 667 216 50 37 26 40 39 105 102 72 710 11 58 54 25 64 315 327 261 46 689 24862 128 166 287
internal_value=-7.5607e-12 0.000683147 0.00622087 0.00820869 0.0188075 0.00458937 -0.00484482 0.00978932 -0.00275706 0.0222934 0.0337147 0.012256 0.0120627 0.0467372 0.0142582 0.0109646 0.0155429 -0.0241503 0.0313331 0.0147624 -0.00589046 0.00168502 -0.0116857 -0.0106719 -0.0323182 -0.000440332 -0.00123892 -0.0103076 -0.0199343 -0.0128192
internal_weight=17624.7 11360.5 1400.96 1147 291.977 855.023 303.816 551.207 253.958 270.288 127.713 48.2333 142.575 79.4798 428.952 365.991 302.072 21.4756 37.2724 20.8908 122.255 95.0181 236.464 63.9194 27.2368 244.068 6264.2 251.347 151.564 121.959
internal_count=69200 43381 4557 3721 752 2969 1210 1759 836 656 286 133 370 153 1284 1112 779 69 94 51 475 379 994 333 96 799 25819 957 581 453
is_linear=0
shrinkage=0.05


Tree=22
num_leaves=31
num_cat=0
split_feature=8 8 9 9 6 8 8 9 0 2 9 9 2 8 9 8 7 7 3 2 9 3 9 9 9 2 9 9 3 9
split_gain=5.4991 25.3636 9.54275 16.6237 16.0551 16.5514 12.5419 11.8476 9.76574 9.04156 21.3682 26.321 13.9654 15.302 22.4564 11.8245 18.1143 11.1387 11.1274 16.4673 14.8417 15.6696 9.57328 8.81714 14.4231 20.7072 15.991 15.239 13.2428 37.1729
threshold=8.9772362412641566 8.8037090682882795 127.9875332036823 110.99106948540025 62.013913614981696 8.9359888958037441 8.8397519316747584 32.348404853078627 9.5000000000000018 5.5000000000000009 26.841886983120386 24.229736523619991 6.5000000000000009 8.4748322079948242 51.394307160773245 8.6558895416120993 1.688848829460152 1.8231066760381942 30.500000000000004 33.500000000000007 161.38852504198817 33.500000000000007 153.28231274373331 55.956535547457499 66.770890821136774 11.500000000000002 81.521650366842664 81.204186660507617 23.500000000000004 127.08675977427879
decision_type=2 2 2 2 2 2 2 2 2 2 2 2 2 2 2 2 2 2 2 2 2 2 2 2 2 2 2 2 2 2
left_child=1 9 3 6 5 -5 8 -8 -3 10 11 -1 -11 22 -15 16 -13 -12 19 23 -20 -22 -14 -16 25 -25 27 -26 -28 -30
right_child=-2 2 -4 4 -6 -7 7 -9 -10 12 17 15 13 14 18 -17 -18 -19 20 -21 21 -23 -24 24 26 -27 28 -29 29 -31
leaf_value=0.002123715849342225 -0.0011928576564093317 0.038045119590084567 -0.0026725777008341205 -0.036984620784680816 0.029212059299882923 0.042239080864680707 -0.029949790654438532 0.0042444065609717726 0.011516604030751523 -0.011358274856455235 -0.04651111674644734 -0.030634128824885105 0.00092584532276811411 -0.021550974877173643 0.012836156381554071 0.046435513153302861 0.023273012448311006 -0.0028056740710821686 -0.027487862839512996 -0.064373075852818845 0.037972914958096717 -0.0067588960862879069 -0.018761128327566622 0.022878905509671175 0.0044047260759347701 -0.023260755562396474 -0.0098296317911550427 0.046890013647377465 0.019214944083335694 -0.012348954188882389
leaf_weight=1147.462891924195 6231.9932402502745 42.250953584909439 214.63942134566605 20.012048818171028 152.69090205430984 9.8316505625843984 26.257911708205938 718.27732480876148 193.88621489703655 303.727947069332 31.09725627861917 18.120817728340626 6304.9352636244148 173.08367278426886 80.84340601041913 41.361424423754215 111.30025887489319 27.443717386573553 18.416108295321465 11.097536794841288 54.852644681930542 30.443689949810505 62.36163879558444 28.367208413779736 306.44456572085619 170.31788859143853 625.65062997303903 22.667853206396103 171.45721051841974 204.57753047719598
leaf_count=4329 25819 92 726 72 414 23 149 2515 566 1877 219 89 24629 870 306 92 296 156 91 43 150 115 269 92 957 795 2259 40 455 695
internal_value=-1.96558e-11 0.000656478 0.00701422 0.00880166 0.0226563 -0.0108853 0.00622287 0.00303846 0.0162632 -0.000224274 0.00353674 0.0048494 -0.000828541 -0.000441611 -0.00438177 0.0231629 0.0157252 -0.0260222 -0.00265918 -0.00367478 0.0132186 0.0220074 0.00073303 -0.00325647 -0.00410708 -0.0166732 -0.00223099 0.00733093 -0.00537264 0.00204296
internal_weight=17555.9 11323.9 1377.85 1163.21 182.535 29.8437 980.672 744.535 236.137 9946.03 1376.79 1318.25 8569.24 8265.52 1898.22 170.783 129.421 58.541 1725.14 1621.42 103.712 85.2963 6367.3 1610.33 1529.48 198.685 1330.8 329.112 1001.69 376.035
internal_count=69200 43381 4557 3831 509 95 3322 2664 658 38824 5181 4806 33643 31766 6868 477 385 375 5998 5642 356 265 24898 5599 5293 887 4406 997 3409 1150
is_linear=0
shrinkage=0.05


Tree=23
num_leaves=31
num_cat=0
split_feature=8 8 2 2 3 7 11 5 3 9 5 8 9 6 6 9 2 5 5 9 3 10 9 6 1 6 6 10 2 2
split_gain=5.41629 14.2019 7.52824 17.1664 7.53002 7.50464 12.5843 12.224 15.3915 9.75754 9.60537 7.39544 12.3197 11.1001 12.7183 10.2327 9.90226 10.4822 9.64518 11.9238 12.4729 9.86106 9.78339 12.4836 9.58274 9.67846 9.42517 10.1679 9.16161 20.1425
threshold=8.9772362412641566 8.8037090682882795 43.500000000000007 44.500000000000007 40.500000000000007 2.0190857621455094 15.363374603011369 10.164356782214396 10.500000000000002 37.149599042909465 7.6702755630922965 9.4203182544994792 196.99560631331056 53.590005648616987 59.991678906839859 40.554816982766162 31.500000000000004 7.004563940400069 9.3264765045318097 164.91131776342033 27.500000000000004 2.5000000000000004 153.28231274373331 111.08909638732385 28.500000000000004 130.53010157253217 58.299246338451859 1.0000000180025095e-35 14.500000000000002 16.500000000000004
decision_type=2 2 2 2 2 2 2 2 2 2 2 2 2 2 2 2 2 2 2 2 2 2 2 2 2 2 2 2 2 2
left_child=1 -1 5 -4 -5 9 7 8 -7 -2 -10 12 13 16 26 -16 17 -11 19 20 21 -17 23 -20 25 28 27 -15 -23 -30
right_child=2 -3 3 4 -6 6 -8 -9 10 11 -12 -13 -14 14 15 18 -18 -19 22 -21 -22 24 -24 -25 -26 -27 -28 -29 29 -31
leaf_value=-1.2989212759445118e-05 -0.013397852833794216 0.0053869904086570469 0.061086198587326349 -0.027192231822293231 0.029036775182806153 0.0035856096696845565 -0.052762487117234025 -0.018326953219703349 0.066165503659666822 -0.016375231490824493 0.022552708754101956 0.00016301538221744327 -0.074599730144145796 -0.063714290566632165 0.044357204713359383 0.0083358798595087168 -0.031560387341846262 0.007761345737956284 -0.0034853142136072653 -0.03312470608088211 0.02391266640828537 -0.031257600072658452 0.0068148145050543271 -0.014950261677187715 0.021230166351618378 -0.034758641838200037 -0.05271554151286071 -0.0084511269096616565 0.030988957326284386 -0.0071174764081232793
leaf_weight=9839.4765699766576 172.6752121783793 1389.5481503475457 15.769840553402899 15.414538128301501 9.7013939991593361 133.74402438476682 8.4776581600308401 34.587142962962389 16.046897280961275 50.659092709422112 59.201319869607687 3384.4368010386825 6.0742463767528525 9.3720050081610662 10.861406758427618 207.35528264567256 19.249550871551037 401.40229723230004 496.85659378394485 25.843463085591793 56.775784373283386 30.20189069584012 109.54764322564006 454.72690469026566 32.087922688573599 29.442690927535295 20.158979617059231 74.389200318604708 39.504824973642826 283.83861306682229
leaf_count=38824 1046 4557 28 56 22 680 60 177 33 225 226 14993 20 33 47 732 79 1366 1747 95 172 193 350 1728 111 125 90 287 113 985
internal_value=1.5953e-12 0.000655237 -0.00118512 0.0201992 -0.00547296 -0.00132688 0.0071225 0.00920676 0.0137635 -0.0016869 0.0318533 -0.00133478 -0.00348424 -0.0033006 -0.00501991 -0.00402566 0.00356101 0.00505654 -0.00432319 0.000209767 0.00147813 -0.000568267 -0.00733504 -0.00896399 -0.00501642 -0.00721544 -0.0220217 -0.0146345 -0.00492169 -0.00246178
internal_weight=17437.4 11229 6208.4 40.8858 25.1159 6167.52 252.057 243.579 208.992 5915.46 75.2482 5742.79 2358.35 2352.27 1880.96 1777.04 471.311 452.061 1766.18 705.05 679.207 622.431 1061.13 951.583 415.076 382.988 103.92 83.7612 353.545 323.343
internal_count=69200 43381 25819 106 78 25713 1176 1116 939 24537 259 23491 8498 8478 6808 6398 1670 1591 6351 2526 2431 2259 3825 3475 1527 1416 410 320 1291 1098
is_linear=0
shrinkage=0.05


Tree=24
num_leaves=31
num_cat=0
split_feature=11 9 9 9 5 10 6 0 9 9 11 2 1 5 11 2 5 5 11 9 3 10 9 11 10 8 3 3 8 8
split_gain=5.42418 11.1131 12.5418 10.9148 9.89986 11.1915 12.1188 11.008 10.4169 13.4924 10.722 8.69129 8.2783 7.59645 10.075 8.70904 7.38828 9.04434 7.23541 7.75576 6.84374 9.71993 6.81726 7.89799 6.79516 6.78175 6.76314 6.71794 6.66661 7.22565
threshold=17.046641596403251 105.80102930089441 119.14879411991848 119.69236527172789 9.8678249212129163 5.5000000000000009 158.70134455576493 28.500000000000004 61.184169563934276 97.75641997892528 20.018593614088712 16.500000000000004 36.500000000000007 7.5471246198636157 17.188785736834866 29.500000000000004 10.235907204034733 10.396509586279945 17.706202613812703 100.32773568107285 22.500000000000004 4.5000000000000009 79.02128001695749 20.018593614088712 8.5000000000000018 9.2684770476003688 17.500000000000004 35.500000000000007 9.5238898594833632 8.7861634083826452
decision_type=2 2 2 2 2 2 2 2 2 2 2 2 2 2 2 2 2 2 2 2 2 2 2 2 2 2 2 2 2 2
left_child=-1 4 13 -4 7 11 22 24 10 -10 -9 -6 16 -3 -15 26 20 27 -13 -20 -5 28 23 -7 -2 -19 -16 -18 29 -22
right_child=1 2 3 12 5 6 -8 8 9 -11 -12 18 -14 14 15 -17 17 25 19 -21 21 -23 -24 -25 -26 -27 -28 -29 -30 -31
leaf_value=-0.00028258459210864906 0.0056039211060083111 -0.031860438267762664 -0.057423585959778513 -0.018418920114394766 -0.017951979779685281 0.020559436892828211 -0.001006855507162703 -0.033510688825062938 -0.036318352813938158 0.01118439287959791 0.056610070247457393 -0.026872413966230774 0.03097301267723894 -0.048001497937482332 0.06769343515731617 0.072969998010189635 -0.033511579756933911 0.052132873602433696 0.032369090974550915 -0.026825374058790871 0.036739392587677749 0.0027628187164722268 -0.058139835143925116 -0.051912863953640455 -0.044049527680725398 -0.011692213461761032 0.016397551940518281 0.024409663839274481 0.031972319037964707 -0.01123502312165889
leaf_weight=15788.255894964561 394.75360336527228 7.8312055543065062 7.3927984684705725 31.886191189289093 42.646219313144684 7.3148686066269857 26.060848984867334 5.1622889824211589 51.618811912834644 21.041707910597324 9.1506331600248796 9.2221609130501729 26.687106430530548 5.5873529464006415 6.6427437737584105 7.4907937273383132 38.322537481784821 7.5971280112862614 32.649756573140621 6.6627369970083228 11.531315706670282 528.28269968554378 29.089804243296385 7.7342001609504223 7.0127514488995066 9.2045298311859352 196.70353201404214 5.7583260163664809 52.730627443641424 24.576454862952232
leaf_count=63364 1527 28 28 136 213 28 113 37 257 80 33 33 76 21 13 15 145 16 103 34 27 1781 137 48 40 25 607 14 139 82
internal_value=5.09796e-12 0.00275684 0.00615201 0.00302768 -0.00229959 -0.013037 -0.0280433 0.00124589 -0.0148821 -0.0225621 0.0241059 -0.00148379 0.00363441 0.016517 0.0182675 0.0200237 0.00260667 -0.0140476 0.0129864 0.0223367 0.00416898 0.00533608 -0.0440064 -0.0166864 0.00473723 0.0171673 0.0180732 -0.0259453 0.0206381 0.004086
internal_weight=17406.6 1618.35 968.225 743.97 650.12 161.381 70.1997 488.74 86.9734 72.6605 14.3129 91.1809 736.577 224.256 216.424 210.837 709.89 60.8825 48.5347 39.3125 649.007 617.121 44.1389 15.0491 401.766 16.8017 203.346 44.0809 88.8384 36.1078
internal_count=69200 5836 3153 2469 2683 709 326 1974 407 337 70 383 2441 684 656 635 2365 200 170 137 2165 2029 213 76 1567 41 620 159 248 109
is_linear=0
shrinkage=0.05


Tree=25
num_leaves=31
num_cat=0
split_feature=11 10 7 11 0 8 11 6 5 9 9 9 11 3 8 2 11 6 1 9 8 6 8 8 3 3 9 5 6 3
split_gain=8.46636 6.88933 10.0934 16.4563 14.9454 9.62476 12.3904 11.1476 10.8116 8.45926 10.5739 10.4179 8.22315 8.16646 8.87405 8.366 8.21309 10.3915 9.12587 8.08957 11.8595 9.35005 7.62876 8.91609 12.3713 10.9091 9.44705 8.9122 8.24306 8.37634
threshold=17.046641596403251 3.5000000000000004 1.0000000180025095e-35 12.218810961040203 7.5000000000000009 8.3436875275419293 11.811003699330007 67.067548263631082 8.2787980060389419 50.507029436846189 71.377674430798095 76.044669981585756 15.839380667962905 32.500000000000007 9.6811365244345833 35.500000000000007 8.3968138286898739 78.374349770943482 27.500000000000004 110.99106948540025 8.7353013343754249 75.925585194694079 9.8177831919344243 8.2787980060389419 17.500000000000004 23.500000000000004 65.928820625139892 9.0202586044434234 126.69467695395555 28.500000000000004
decision_type=2 2 2 2 2 2 2 2 2 2 2 2 2 2 2 2 2 2 2 2 2 2 2 2 2 2 2 2 2 2
left_child=1 12 4 5 -3 9 7 -7 -9 -4 -11 -12 -1 -6 15 -15 -17 -18 -19 20 21 -14 23 26 -25 -26 -5 -24 -27 -30
right_child=-2 2 3 22 13 6 -8 8 -10 10 11 -13 19 14 -16 16 17 18 -20 -21 -22 -23 27 24 25 28 -28 -29 29 -31
leaf_value=0.00032399575540376785 0.0034596965425078841 -0.038296783749889735 0.0077874183631111904 0.00028669452868200268 -0.0038397539929800524 0.040338864470369995 -0.042672057894645628 -0.043330204466504312 0.005222176132547364 -0.038279792398747015 0.04396637376206862 -0.015679722768643573 -0.0010815560711177324 0.069348629270667039 -0.0079849137454499914 0.045293596652804274 -0.042832582349573364 0.022119652155451912 -0.024318963000200471 -0.048349003916655572 0.012965876561892138 -0.083934093561593356 -0.024366127150448461 0.013842237192651369 -0.022454416137419539 0.019400542120881575 0.021569106707515308 0.04001748225615312 -0.040982429289507037 0.023304937798304552
leaf_weight=11945.083705076016 1605.0372164286673 30.673647306859493 31.446869641542435 82.602832682430744 2768.5525816101581 20.502978160977364 14.29689124599099 12.593495480716227 128.05442103371024 52.075870756059885 8.357940621674059 58.991357158869505 6.5013413056731206 7.0585253089666358 56.083541870117188 16.13726319745183 9.5223422385752183 53.808040458709002 13.168316900730131 16.430868055671453 26.287025943398476 7.1502908915281296 6.4200356006622306 92.810781789943576 76.078036785125732 39.859407544136047 141.40318690985441 33.018619939684868 14.525861263275148 7.78111258894205
leaf_count=48265 5836 150 132 349 11044 64 72 61 502 256 29 220 27 12 169 40 42 147 44 90 106 42 31 366 336 137 417 112 70 32
internal_value=-2.70916e-12 -0.000351958 -0.0022147 0.00269028 -0.00357717 -0.00602486 0.00193809 0.00589578 0.000874837 -0.0152849 -0.0213603 -0.00827774 0.000234087 -0.003213 0.00792602 0.0168768 0.0128786 0.00604074 0.0129893 -0.0188181 -0.00666899 -0.0444771 0.00844138 0.00661311 -0.000278079 -0.00975779 0.0137212 0.0295368 0.00578009 -0.0185577
internal_weight=17382.3 15777.3 3775.82 820.82 2955 326.32 175.448 161.151 140.648 150.872 119.425 67.3493 12001.5 2924.33 155.778 99.6945 92.636 76.4987 66.9764 56.3695 39.9387 13.6516 494.5 455.061 231.055 138.244 224.006 39.4387 62.1664 22.307
internal_count=69200 63364 14834 3186 11648 1336 699 627 563 637 505 249 48530 11498 454 285 273 233 191 265 175 69 1850 1707 941 575 766 143 239 102
is_linear=0
shrinkage=0.05


Tree=26
num_leaves=31
num_cat=0
split_feature=7 5 11 11 7 6 11 2 9 7 11 0 6 9 11 5 8 8 5 5 9 7 2 4 3 8 6 6 1 6
split_gain=4.99594 6.71555 5.08443 12.5566 13.5625 13.991 8.00072 8.01514 15.4265 12.6906 13.0088 11.2063 9.56529 8.43719 8.06583 11.0557 11.6999 8.48877 10.0259 12.706 8.06455 7.79983 7.64652 7.36588 6.93958 6.60938 8.97197 6.45733 6.41192 12.4764
threshold=6.6931358226041331 9.1122897050792933 12.218810961040203 12.749370046277081 1.0000000180025095e-35 48.916572610103579 13.206764381292206 16.500000000000004 57.657796981297373 1.0000000180025095e-35 13.548760874686751 23.500000000000004 115.37119291033677 56.574563160797474 14.867626813162898 9.7701281020322615 7.6533258695067099 8.9772362412641566 8.4621733040026808 9.4881603774922905 57.033985517446773 1.688848829460152 15.500000000000002 1.688848829460152 14.500000000000002 8.9359888958037441 48.916572610103579 49.518590231141559 18.500000000000004 79.421645060663749
decision_type=2 2 2 2 2 2 2 2 2 2 2 2 2 2 2 2 2 2 2 2 2 2 2 2 2 2 2 2 2 2
left_child=2 -2 -1 4 5 -4 -5 8 13 10 -10 12 14 24 15 16 -12 18 -16 -20 -15 -11 27 -6 -8 26 -23 -19 29 -7
right_child=1 -3 3 6 23 28 7 -9 9 21 11 -13 -14 20 17 -17 -18 22 19 -21 -22 25 -24 -25 -26 -27 -28 -29 -30 -31
leaf_value=-0.00050940856649508179 0.019669258323492138 -0.03774468769785113 -0.034131945025000339 -0.0082403364996465334 0.026827653072422998 0.0094022175173264465 0.0036475828843442722 0.0025578445851470802 -0.074046451027731316 0.0037343442333511549 0.053993316295462106 -0.03472620530134983 0.040535870578246654 0.065851087099212183 -0.069630474329770084 0.056517102172105982 -0.029473181267663236 0.024251060691682511 0.007364727647211783 -0.068291930815201393 -0.0022761313584433031 0.053556352585459745 0.0278497726785173 -0.028025395447973969 -0.057461926900821504 -0.044903012379572553 -0.018965350560954181 -0.040082988977247616 0.01391999461737628 -0.031852974877179994
leaf_weight=13444.125526254997 54.893307758495212 5.6140402927994719 22.372449595481157 237.39765686169267 115.85932104289532 58.73082672432065 290.93571473658085 2561.0387776270509 10.452178154140709 154.10224745795131 5.5401550903916421 56.643573816865683 9.5007187947630864 10.61122038960457 14.563629526644943 8.8626979440450651 17.337615814059973 5.4303881004452732 16.885734222829345 8.2662438452243787 7.3546415902674189 5.2808436006307629 12.838795287534593 6.4614895433187476 4.721134651452302 16.702024430036545 22.164296310395002 13.84391927346587 139.78477605804801 26.638402342796326
leaf_count=54249 217 53 107 988 389 218 1390 9224 56 571 13 286 29 26 74 25 88 24 63 42 48 10 44 33 25 109 89 84 501 125
internal_value=1.45088e-11 0.0143422 -5.01495e-05 0.00154929 0.0103097 0.00357891 0.000621039 0.00126771 -0.00350672 -0.0103028 -0.0199078 -0.0165735 -0.00747976 0.00469337 -0.0118844 0.00910606 -0.00926066 -0.0211599 -0.0366161 -0.0175 0.037962 -0.00157393 -0.00204451 0.0239301 0.00267177 -0.0201033 -0.00501112 -0.0219574 0.00732606 -0.00347095
internal_weight=17365 60.5073 17304.4 3860.32 369.847 247.526 3490.47 3253.08 692.038 378.415 180.166 169.713 113.07 313.623 103.569 31.7405 22.8778 71.8287 39.7156 25.152 17.9659 198.249 32.1131 122.321 295.657 44.1472 27.4451 19.2743 225.154 85.3692
internal_count=69200 270 68930 14681 1373 951 13308 12320 3096 1607 828 772 486 1489 457 126 101 331 179 105 74 779 152 422 1415 208 99 108 844 343
is_linear=0
shrinkage=0.05


Tree=27
num_leaves=31
num_cat=0
split_feature=11 11 7 0 11 8 0 8 10 6 9 11 8 5 3 11 3 6 3 0 8 5 0 0 9 9 8 9 11 5
split_gain=5.27576 8.62378 7.1608 10.0039 6.78289 6.28666 9.0168 9.37208 8.21019 7.67178 7.56277 6.17218 15.7263 5.57316 5.51136 5.50016 11.6629 5.82075 7.58197 5.54532 5.48154 10.0536 7.03594 5.31079 6.64934 7.75951 11.232 7.8262 7.41084 5.83004
threshold=12.218810961040203 12.749370046277081 1.0000000180025095e-35 8.5000000000000018 12.159091265970471 8.4373263466047845 20.500000000000004 9.3567888154400283 5.5000000000000009 93.203429965869546 137.93964150232406 12.914465369733607 9.8678249212129163 10.164356782214396 18.500000000000004 12.534554681697465 22.500000000000004 112.76764757564224 17.500000000000004 30.500000000000004 8.114967202569412 8.6258103852895935 15.500000000000002 34.500000000000007 104.74195409008725 119.14879411991848 8.5271339442028893 115.23418322012049 5.1956276598750479 9.9761179965969404
decision_type=2 2 2 2 2 2 2 2 2 2 2 2 2 2 2 2 2 2 2 2 2 2 2 2 2 2 2 2 2 2
left_child=4 2 3 -2 23 8 9 10 -5 -7 15 12 20 14 -9 16 19 -17 -19 -8 21 22 -3 -1 28 27 -27 -26 29 -25
right_child=1 11 -4 5 -6 6 7 13 -10 -11 -12 -13 -14 -15 -16 17 -18 18 -20 -21 -22 -23 -24 24 25 26 -28 -29 -30 -31
leaf_value=-0.00025570269134570574 -0.051462070438356489 -0.042795451120495889 0.018229142112424556 -0.011079815299938397 -0.020378041472412855 0.0044860712313871181 -0.028489211556890881 -0.061416317584284869 0.034130926875980988 -0.044155645533712679 -0.011524419697050998 0.0011855846837980737 0.044239471504062808 0.035332273579825491 -0.00053269282781538078 0.087363418578726398 0.06318244650922053 0.077754467176888054 0.0076922738702142023 0.034790919758053734 -0.011104791292732452 -0.071336042051292986 0.034222980135498696 0.013475452568213392 0.007354856156369766 -0.064293557041096794 -0.00048212646911926751 0.058929143346757612 -0.020638895548987794 -0.017500086292152155
leaf_weight=13134.62685273774 7.9282240420579901 6.3833014443516749 131.16531101614237 75.913635673001409 42.638428151607513 53.592321297153831 9.2321070581674594 4.5958913415670422 11.572573859244583 9.5508477762341482 8.065010614693163 3395.5747126452625 10.812534008175133 8.3070520311593992 19.438190937042236 9.7631170153617877 11.03542912006378 6.8400259613990775 8.8676727339625341 5.5392563417553893 52.807919139042497 12.38968952000141 5.5379603654146194 36.885963413864374 28.597676243633032 7.6735461615025988 68.059544950723648 9.9028477296233159 115.2691079415381 25.826570235192776
leaf_count=52955 51 28 422 308 197 213 38 29 39 51 29 12916 40 28 74 14 16 15 31 15 243 72 16 174 102 43 252 24 616 149
internal_value=2.01788e-11 0.00162841 0.00876619 0.00380613 -0.000467253 0.00561445 0.0116684 0.021682 -0.00509939 -0.00287133 0.0334835 0.000846899 -0.0122318 2.75107e-05 -0.0121751 0.0405623 0.0242938 0.0570455 0.0382013 -0.00475918 -0.0201495 -0.0397961 -0.00701694 -0.000404025 -0.00707086 0.00234366 -0.00694773 0.0206204 -0.0131134 0.000718961
internal_weight=17334.4 3864.91 381.407 250.241 13469.5 242.313 154.827 91.6838 87.4862 63.1432 59.3426 3483.51 87.9314 32.3411 24.0341 51.2776 25.8068 25.4708 15.7077 14.7714 77.1189 24.311 11.9213 13426.8 292.215 114.234 75.7331 38.5005 177.982 62.7125
internal_count=69200 14688 1373 951 54512 900 553 289 347 264 158 13315 399 131 103 129 69 60 46 53 359 116 44 54315 1360 421 295 126 939 323
is_linear=0
shrinkage=0.05


Tree=28
num_leaves=31
num_cat=0
split_feature=11 11 9 8 8 7 6 9 5 6 5 10 5 5 5 8 8 7 8 2 9 5 8 10 3 3 8 10 11 11
split_gain=3.91192 9.41181 7.14471 6.54837 9.61056 8.20562 10.2167 9.36734 7.9296 7.47527 8.70498 7.05792 7.05523 6.99388 11.3115 8.42448 7.20892 6.52037 7.49246 8.21645 6.46205 6.0269 5.99412 5.55892 7.25795 6.6706 15.6541 17.8232 8.38122 6.45354
threshold=12.218810961040203 12.749370046277081 177.08978608785705 8.4373263466047845 8.3215865057901848 1.688848829460152 72.689108792522873 67.969580065314545 8.7027759918548195 63.259839500177677 9.0202586044434234 5.5000000000000009 9.0884756805846667 9.9761179965969404 9.6394457199650585 9.6811365244345833 8.8582725675149323 1.0000000180025095e-35 8.2787980060389419 20.500000000000004 126.43887782609845 9.4881603774922905 9.0424844857288402 3.5000000000000004 34.500000000000007 32.500000000000007 9.6394457199650585 4.5000000000000009 9.2258761086903274 5.5998917090186078
decision_type=2 2 2 2 2 2 2 2 2 2 2 2 2 2 2 2 2 2 2 2 2 2 2 2 2 2 2 2 2 2
left_child=23 2 3 4 11 6 9 21 -9 10 -5 17 -6 14 -10 16 -15 18 19 -2 -21 -8 -16 24 -1 29 -27 28 -28 -25
right_child=1 -3 -4 5 12 -7 7 8 13 -11 -12 -13 -14 15 22 -17 -18 -19 -20 20 -22 -23 -24 25 -26 26 27 -29 -30 -31
leaf_value=7.8334790486605507e-05 -0.0028733483808126483 0.00057947574206756395 -0.037099704787756559 -0.016158346356821684 -0.0011479247709269007 0.044922205376686161 0.011213830788159185 0.042975652883532445 0.015628935294684523 -0.038630462748980327 0.037990407389955322 0.044090413178220156 -0.064641719905689274 0.035794623417869181 0.0046891960591472206 0.056351396390783209 -0.011165230379182402 0.015194930160149925 0.051003270969982077 -0.071063783395898097 0.0025777580949072065 -0.059607195570355515 -0.061557635766832375 0.0085935083924624615 -0.025544938749085311 0.030082262912950155 -0.018637230324408373 0.024253263308883263 -0.091962319815457577 -0.004158312815923256
leaf_weight=11449.688418157399 47.688749255612493 3494.633452931419 8.2953247092664224 18.991827346384529 8.7060159146785754 21.078029450029135 5.9884935133159143 33.505804769694805 48.321490809321404 14.326283261179922 12.183640114963053 11.332957677543162 8.7948658391833288 17.545854404568672 5.686884054914116 18.171257667243481 15.298128608614205 57.421181984245777 5.0033009797334662 9.1179703176021558 4.42449977248907 6.027909941971302 8.5455560721456987 105.07488501816988 27.703459642827511 45.712196994572878 8.2479331418871897 14.091274313628672 7.3877926506102076 1780.2409285251051
leaf_count=46276 211 13315 34 94 33 53 26 85 166 55 39 33 37 40 22 47 63 171 13 50 19 37 45 402 130 136 27 35 31 7475
